{"sizes":[500,200,100,50,25,5,1],"layers":[{"0":{},"1":{},"2":{},"3":{},"4":{},"5":{},"6":{},"7":{},"8":{},"9":{},"10":{},"11":{},"12":{},"13":{},"14":{},"15":{},"16":{},"17":{},"18":{},"19":{},"20":{},"21":{},"22":{},"23":{},"24":{},"25":{},"26":{},"27":{},"28":{},"29":{},"30":{},"31":{},"32":{},"33":{},"34":{},"35":{},"36":{},"37":{},"38":{},"39":{},"40":{},"41":{},"42":{},"43":{},"44":{},"45":{},"46":{},"47":{},"48":{},"49":{},"50":{},"51":{},"52":{},"53":{},"54":{},"55":{},"56":{},"57":{},"58":{},"59":{},"60":{},"61":{},"62":{},"63":{},"64":{},"65":{},"66":{},"67":{},"68":{},"69":{},"70":{},"71":{},"72":{},"73":{},"74":{},"75":{},"76":{},"77":{},"78":{},"79":{},"80":{},"81":{},"82":{},"83":{},"84":{},"85":{},"86":{},"87":{},"88":{},"89":{},"90":{},"91":{},"92":{},"93":{},"94":{},"95":{},"96":{},"97":{},"98":{},"99":{},"100":{},"101":{},"102":{},"103":{},"104":{},"105":{},"106":{},"107":{},"108":{},"109":{},"110":{},"111":{},"112":{},"113":{},"114":{},"115":{},"116":{},"117":{},"118":{},"119":{},"120":{},"121":{},"122":{},"123":{},"124":{},"125":{},"126":{},"127":{},"128":{},"129":{},"130":{},"131":{},"132":{},"133":{},"134":{},"135":{},"136":{},"137":{},"138":{},"139":{},"140":{},"141":{},"142":{},"143":{},"144":{},"145":{},"146":{},"147":{},"148":{},"149":{},"150":{},"151":{},"152":{},"153":{},"154":{},"155":{},"156":{},"157":{},"158":{},"159":{},"160":{},"161":{},"162":{},"163":{},"164":{},"165":{},"166":{},"167":{},"168":{},"169":{},"170":{},"171":{},"172":{},"173":{},"174":{},"175":{},"176":{},"177":{},"178":{},"179":{},"180":{},"181":{},"182":{},"183":{},"184":{},"185":{},"186":{},"187":{},"188":{},"189":{},"190":{},"191":{},"192":{},"193":{},"194":{},"195":{},"196":{},"197":{},"198":{},"199":{},"200":{},"201":{},"202":{},"203":{},"204":{},"205":{},"206":{},"207":{},"208":{},"209":{},"210":{},"211":{},"212":{},"213":{},"214":{},"215":{},"216":{},"217":{},"218":{},"219":{},"220":{},"221":{},"222":{},"223":{},"224":{},"225":{},"226":{},"227":{},"228":{},"229":{},"230":{},"231":{},"232":{},"233":{},"234":{},"235":{},"236":{},"237":{},"238":{},"239":{},"240":{},"241":{},"242":{},"243":{},"244":{},"245":{},"246":{},"247":{},"248":{},"249":{},"250":{},"251":{},"252":{},"253":{},"254":{},"255":{},"256":{},"257":{},"258":{},"259":{},"260":{},"261":{},"262":{},"263":{},"264":{},"265":{},"266":{},"267":{},"268":{},"269":{},"270":{},"271":{},"272":{},"273":{},"274":{},"275":{},"276":{},"277":{},"278":{},"279":{},"280":{},"281":{},"282":{},"283":{},"284":{},"285":{},"286":{},"287":{},"288":{},"289":{},"290":{},"291":{},"292":{},"293":{},"294":{},"295":{},"296":{},"297":{},"298":{},"299":{},"300":{},"301":{},"302":{},"303":{},"304":{},"305":{},"306":{},"307":{},"308":{},"309":{},"310":{},"311":{},"312":{},"313":{},"314":{},"315":{},"316":{},"317":{},"318":{},"319":{},"320":{},"321":{},"322":{},"323":{},"324":{},"325":{},"326":{},"327":{},"328":{},"329":{},"330":{},"331":{},"332":{},"333":{},"334":{},"335":{},"336":{},"337":{},"338":{},"339":{},"340":{},"341":{},"342":{},"343":{},"344":{},"345":{},"346":{},"347":{},"348":{},"349":{},"350":{},"351":{},"352":{},"353":{},"354":{},"355":{},"356":{},"357":{},"358":{},"359":{},"360":{},"361":{},"362":{},"363":{},"364":{},"365":{},"366":{},"367":{},"368":{},"369":{},"370":{},"371":{},"372":{},"373":{},"374":{},"375":{},"376":{},"377":{},"378":{},"379":{},"380":{},"381":{},"382":{},"383":{},"384":{},"385":{},"386":{},"387":{},"388":{},"389":{},"390":{},"391":{},"392":{},"393":{},"394":{},"395":{},"396":{},"397":{},"398":{},"399":{},"400":{},"401":{},"402":{},"403":{},"404":{},"405":{},"406":{},"407":{},"408":{},"409":{},"410":{},"411":{},"412":{},"413":{},"414":{},"415":{},"416":{},"417":{},"418":{},"419":{},"420":{},"421":{},"422":{},"423":{},"424":{},"425":{},"426":{},"427":{},"428":{},"429":{},"430":{},"431":{},"432":{},"433":{},"434":{},"435":{},"436":{},"437":{},"438":{},"439":{},"440":{},"441":{},"442":{},"443":{},"444":{},"445":{},"446":{},"447":{},"448":{},"449":{},"450":{},"451":{},"452":{},"453":{},"454":{},"455":{},"456":{},"457":{},"458":{},"459":{},"460":{},"461":{},"462":{},"463":{},"464":{},"465":{},"466":{},"467":{},"468":{},"469":{},"470":{},"471":{},"472":{},"473":{},"474":{},"475":{},"476":{},"477":{},"478":{},"479":{},"480":{},"481":{},"482":{},"483":{},"484":{},"485":{},"486":{},"487":{},"488":{},"489":{},"490":{},"491":{},"492":{},"493":{},"494":{},"495":{},"496":{},"497":{},"498":{},"499":{}},{"0":{"bias":-0.021774176508188248,"weights":{"0":0.0174836665391922,"1":-0.009750902652740479,"2":-0.010244244709610939,"3":0.12985502183437347,"4":0.19669225811958313,"5":-0.16147218644618988,"6":0.168265238404274,"7":0.19052648544311523,"8":0.19112493097782135,"9":-0.11227798461914062,"10":0.18673215806484222,"11":-0.1082785353064537,"12":0.057366903871297836,"13":-0.06516773998737335,"14":0.1832112967967987,"15":-0.14993971586227417,"16":-0.1929129660129547,"17":-0.013268339447677135,"18":0.08048559725284576,"19":0.18508365750312805,"20":0.1557631641626358,"21":-0.11574398726224899,"22":-0.0026775766164064407,"23":0.1380755603313446,"24":0.19730240106582642,"25":-0.03293126821517944,"26":-0.10621723532676697,"27":0.14291656017303467,"28":0.18506965041160583,"29":-0.0953928604722023,"30":0.19992674887180328,"31":0.1782272309064865,"32":0.14489679038524628,"33":0.08376999944448471,"34":-0.018271835520863533,"35":-0.049761660397052765,"36":0.058650314807891846,"37":0.14127686619758606,"38":-0.0534680038690567,"39":0.15640389919281006,"40":0.0089820371940732,"41":0.1476074606180191,"42":-0.14704404771327972,"43":0.18343918025493622,"44":0.06026572361588478,"45":-0.1927783191204071,"46":-0.10520314425230026,"47":-0.17969805002212524,"48":0.015278743579983711,"49":0.14332616329193115,"50":0.12275779247283936,"51":0.051975999027490616,"52":0.10868538916110992,"53":-0.005892456974834204,"54":-0.0430581234395504,"55":0.15560469031333923,"56":-0.02186761610209942,"57":-0.11457439512014389,"58":0.12272973358631134,"59":-0.1986929029226303,"60":0.03020837903022766,"61":0.18242409825325012,"62":0.15649425983428955,"63":-0.1562671810388565,"64":0.07022096961736679,"65":-0.014267019927501678,"66":-0.006677952129393816,"67":0.16171617805957794,"68":-0.18478864431381226,"69":-0.17419329285621643,"70":0.015760064125061035,"71":0.07716115564107895,"72":0.022990290075540543,"73":-0.04324081167578697,"74":0.15920771658420563,"75":-0.06526750326156616,"76":0.17582666873931885,"77":0.13935109972953796,"78":-0.06587093323469162,"79":0.11364232003688812,"80":-0.16526342928409576,"81":-0.06774235516786575,"82":-0.14844828844070435,"83":0.10761838406324387,"84":-0.06686435639858246,"85":-0.15485799312591553,"86":-0.1883406788110733,"87":0.12264996021986008,"88":-0.16949988901615143,"89":0.12568728625774384,"90":0.08556361496448517,"91":0.1460716277360916,"92":0.08493116497993469,"93":-0.1400379091501236,"94":-0.040283769369125366,"95":0.14037147164344788,"96":0.057419952005147934,"97":-0.1559230089187622,"98":-0.026443906128406525,"99":0.19873949885368347,"100":-0.12407954037189484,"101":0.09680135548114777,"102":-0.03283075615763664,"103":0.18163937330245972,"104":-0.0593622662127018,"105":0.11321213096380234,"106":-0.05261573567986488,"107":0.013179543428122997,"108":0.08603308349847794,"109":-0.08788097649812698,"110":-0.19864319264888763,"111":-0.11329832673072815,"112":0.18800176680088043,"113":0.17546890676021576,"114":0.10847917944192886,"115":-0.1551542580127716,"116":0.1390172243118286,"117":0.0704241693019867,"118":0.030670959502458572,"119":-0.02794201485812664,"120":0.15079548954963684,"121":0.12366043776273727,"122":-0.15490323305130005,"123":-0.1355125904083252,"124":0.06076200306415558,"125":0.13182812929153442,"126":0.18033911287784576,"127":-0.15127506852149963,"128":0.0729532465338707,"129":0.14697979390621185,"130":-0.03961094468832016,"131":0.15892016887664795,"132":-0.07933330535888672,"133":0.015256840735673904,"134":0.08785321563482285,"135":-0.05294617637991905,"136":-0.09763176739215851,"137":-0.052838586270809174,"138":0.027387497946619987,"139":0.07550933957099915,"140":0.07740843296051025,"141":-0.15839290618896484,"142":0.01878257282078266,"143":-0.03919987753033638,"144":-0.1054919883608818,"145":0.17404021322727203,"146":-0.0723738819360733,"147":-0.10677815228700638,"148":-0.055201079696416855,"149":0.11536764353513718,"150":0.15486419200897217,"151":0.11112277954816818,"152":0.08775644749403,"153":0.03804377466440201,"154":-0.12731055915355682,"155":0.027298403903841972,"156":0.11559361219406128,"157":-0.14144586026668549,"158":-0.005342239048331976,"159":-0.08012174814939499,"160":-0.13679315149784088,"161":0.12831664085388184,"162":0.11010308563709259,"163":-0.08542954176664352,"164":0.030678387731313705,"165":0.07031767070293427,"166":0.007855064235627651,"167":-0.10068504512310028,"168":0.004730164539068937,"169":0.0970049649477005,"170":0.03111458383500576,"171":0.04589443281292915,"172":0.03945818170905113,"173":-0.19201038777828217,"174":0.17303374409675598,"175":-0.023716088384389877,"176":-0.1392771601676941,"177":-0.1466841995716095,"178":-0.16192564368247986,"179":-0.001569627900607884,"180":-0.06837968528270721,"181":-0.1909615397453308,"182":0.19674666225910187,"183":0.17005185782909393,"184":0.06708361208438873,"185":-0.11318156123161316,"186":0.011943674646317959,"187":0.18066197633743286,"188":0.08819988369941711,"189":0.16479164361953735,"190":-0.06527791172266006,"191":-0.11145970970392227,"192":0.08592105656862259,"193":0.16897141933441162,"194":-0.16996949911117554,"195":-0.06912103295326233,"196":0.1550198495388031,"197":-0.004853375721722841,"198":0.03948655351996422,"199":0.06321951001882553,"200":0.14400586485862732,"201":-0.09716767072677612,"202":0.11567404121160507,"203":0.04725365713238716,"204":0.1990867555141449,"205":0.027115145698189735,"206":-0.1379489153623581,"207":0.025284241884946823,"208":0.101349376142025,"209":-0.053095947951078415,"210":0.04628300666809082,"211":0.19685977697372437,"212":-0.16388072073459625,"213":0.12413741648197174,"214":0.07149595767259598,"215":-0.08674504607915878,"216":-0.08546935021877289,"217":0.1600092053413391,"218":-0.1559697836637497,"219":0.059075240045785904,"220":-0.07027637958526611,"221":-0.18739087879657745,"222":0.13468891382217407,"223":0.027315659448504448,"224":0.05957212671637535,"225":0.1263555884361267,"226":-0.11730065196752548,"227":0.03010006807744503,"228":-0.07762646675109863,"229":0.07699383795261383,"230":-0.029905520379543304,"231":-0.030417386442422867,"232":0.033274758607149124,"233":0.18012923002243042,"234":-0.06663916260004044,"235":0.1548549383878708,"236":0.030106304213404655,"237":0.18042252957820892,"238":0.09145382046699524,"239":-0.19939330220222473,"240":0.16326753795146942,"241":-0.10633288323879242,"242":0.05464967340230942,"243":-0.023956917226314545,"244":0.05919819697737694,"245":0.14959470927715302,"246":0.03567826375365257,"247":-0.021061839535832405,"248":-0.03056429512798786,"249":-0.08876267820596695,"250":-0.14368973672389984,"251":0.10933294892311096,"252":0.18503960967063904,"253":-0.1456756591796875,"254":-0.18199096620082855,"255":-0.13106414675712585,"256":0.1708771139383316,"257":-0.19640618562698364,"258":-0.11393113434314728,"259":0.12467996776103973,"260":-0.16831548511981964,"261":-0.03264370188117027,"262":-0.020455019548535347,"263":-0.1685437709093094,"264":-0.1526123285293579,"265":0.08219191431999207,"266":0.11606288701295853,"267":0.0593891404569149,"268":-0.17853115499019623,"269":0.08471252024173737,"270":-0.15952670574188232,"271":0.020596513524651527,"272":0.01795339770615101,"273":-0.145091250538826,"274":-0.06730972975492477,"275":-0.19052772223949432,"276":0.03783965855836868,"277":-0.14254499971866608,"278":0.0029239673167467117,"279":0.03854917362332344,"280":0.1725384145975113,"281":0.07060559093952179,"282":-0.17302188277244568,"283":-0.03184058144688606,"284":0.04898017644882202,"285":0.07901604473590851,"286":0.037717461585998535,"287":0.009348840452730656,"288":0.10367599129676819,"289":-0.16848188638687134,"290":0.1685212254524231,"291":-0.04645059257745743,"292":-0.16244006156921387,"293":0.1366068422794342,"294":-0.05337175726890564,"295":0.18767854571342468,"296":0.08509165048599243,"297":0.15103285014629364,"298":-0.05287904664874077,"299":-0.17383243143558502,"300":0.14786653220653534,"301":0.09124409407377243,"302":-0.0552043691277504,"303":-0.10360433906316757,"304":-0.08079341799020767,"305":0.0822334960103035,"306":-0.030975962057709694,"307":-0.11655590683221817,"308":-0.13711977005004883,"309":-0.1499588042497635,"310":-0.04486556723713875,"311":0.027116557583212852,"312":0.010954995639622211,"313":0.16135439276695251,"314":0.07713320851325989,"315":0.18147698044776917,"316":-0.13160467147827148,"317":0.16804470121860504,"318":-0.025072183459997177,"319":0.001013660803437233,"320":0.014758563600480556,"321":-0.05986568704247475,"322":-0.18127979338169098,"323":-0.1658649891614914,"324":0.08273497968912125,"325":-0.045958250761032104,"326":-0.14478090405464172,"327":0.09870624542236328,"328":-0.10273433476686478,"329":-0.07063121348619461,"330":0.0727526918053627,"331":-0.03655347600579262,"332":-0.019157778471708298,"333":-0.17222905158996582,"334":0.1411585658788681,"335":-0.16261331737041473,"336":-0.07218927145004272,"337":-0.17995285987854004,"338":-0.12102443724870682,"339":0.14848637580871582,"340":-0.15053661167621613,"341":0.04609009623527527,"342":0.01034831814467907,"343":0.025853313505649567,"344":-0.028981417417526245,"345":0.0601419098675251,"346":0.029524439945816994,"347":-0.004269096069037914,"348":-0.12183786928653717,"349":0.05474857985973358,"350":-0.06786206364631653,"351":0.054840754717588425,"352":0.07668041437864304,"353":0.052558209747076035,"354":0.07676921784877777,"355":-0.1117139384150505,"356":-0.04626557230949402,"357":-0.18337784707546234,"358":0.14756692945957184,"359":0.019685978069901466,"360":-0.19790121912956238,"361":-0.08640684187412262,"362":-0.15153847634792328,"363":-0.12875895202159882,"364":0.1398095339536667,"365":0.18596993386745453,"366":-0.17569513618946075,"367":0.08570987731218338,"368":0.06537451595067978,"369":0.14557549357414246,"370":-0.07951883226633072,"371":-0.006456704810261726,"372":0.09881088137626648,"373":0.0862468034029007,"374":-0.056592002511024475,"375":-0.18955349922180176,"376":0.017337804660201073,"377":-0.1774171143770218,"378":0.05067334324121475,"379":-0.10133115947246552,"380":0.19352127611637115,"381":-0.01040657889097929,"382":-0.18795467913150787,"383":-0.15654776990413666,"384":0.1391478180885315,"385":0.045471757650375366,"386":0.13370370864868164,"387":-0.01662534661591053,"388":0.056498099118471146,"389":0.06611883640289307,"390":-0.00023100600810721517,"391":0.05826602876186371,"392":0.10507826507091522,"393":0.06399309635162354,"394":0.057946622371673584,"395":0.09840679168701172,"396":0.047107815742492676,"397":0.11617979407310486,"398":0.0069517893716692924,"399":0.08896045386791229,"400":0.12201788276433945,"401":-0.02411969192326069,"402":-0.1551068127155304,"403":0.09933057427406311,"404":-0.04166542366147041,"405":-0.09356825053691864,"406":-0.11563872545957565,"407":-0.09510836005210876,"408":-0.08042439073324203,"409":-0.09344585984945297,"410":0.19251832365989685,"411":0.05008092522621155,"412":0.06677474826574326,"413":-0.044373519718647,"414":-0.05871264263987541,"415":0.027463696897029877,"416":0.030020076781511307,"417":0.19913139939308167,"418":0.0488336943089962,"419":-0.08646061271429062,"420":-0.13746856153011322,"421":-0.006087770685553551,"422":0.14744465053081512,"423":-0.16792841255664825,"424":0.13451969623565674,"425":0.15401434898376465,"426":0.0924605280160904,"427":0.18020816147327423,"428":0.08746488392353058,"429":-0.1064990758895874,"430":0.0594567246735096,"431":-0.08594284951686859,"432":0.02843751572072506,"433":-0.15538041293621063,"434":0.11550179868936539,"435":0.018867164850234985,"436":0.1523050218820572,"437":0.054298244416713715,"438":-0.0716269314289093,"439":0.0734032616019249,"440":0.011661271564662457,"441":0.1439727246761322,"442":-0.16868318617343903,"443":-0.12757372856140137,"444":-0.07314485311508179,"445":0.13048647344112396,"446":0.0038297183346003294,"447":-0.12043841183185577,"448":-0.04040667042136192,"449":-0.14539285004138947,"450":0.19449439644813538,"451":-0.01936076208949089,"452":-0.008517169393599033,"453":0.10659505426883698,"454":0.0020724404603242874,"455":-0.04520014300942421,"456":-0.17149119079113007,"457":0.11290454119443893,"458":-0.05326712504029274,"459":-0.10449263453483582,"460":0.16170477867126465,"461":-0.05788382515311241,"462":-0.18223953247070312,"463":0.06405043601989746,"464":0.028211161494255066,"465":-0.11920293420553207,"466":-0.07088448107242584,"467":-0.07220479846000671,"468":-0.040262866765260696,"469":-0.1454632431268692,"470":-0.10090816020965576,"471":0.11352189630270004,"472":0.14493496716022491,"473":-0.12909483909606934,"474":0.19404290616512299,"475":0.05686689168214798,"476":0.19897572696208954,"477":0.02220567688345909,"478":-0.009927609004080296,"479":-0.16967235505580902,"480":-0.019584231078624725,"481":-0.11352252960205078,"482":-0.06708865612745285,"483":0.006711795926094055,"484":0.11103088408708572,"485":-0.09101887047290802,"486":-0.11232195794582367,"487":0.17865748703479767,"488":0.18457454442977905,"489":-0.08310262858867645,"490":-0.058512698858976364,"491":0.09660942852497101,"492":-0.14881926774978638,"493":-0.0023061709944158792,"494":-0.11266870051622391,"495":0.12233159691095352,"496":-0.024022558704018593,"497":0.011373328045010567,"498":-0.11935822665691376,"499":0.06391997635364532}},"1":{"bias":0.13140548765659332,"weights":{"0":-0.005168970208615065,"1":0.13557153940200806,"2":-0.1768670380115509,"3":0.07143497467041016,"4":0.16283123195171356,"5":-0.08796592801809311,"6":-0.01568395458161831,"7":-0.1259555071592331,"8":-0.07624126225709915,"9":0.024035004898905754,"10":-0.1045108363032341,"11":-0.13511234521865845,"12":0.16816265881061554,"13":-0.13785618543624878,"14":-0.049523912370204926,"15":0.01761658675968647,"16":0.06022941693663597,"17":0.1300024688243866,"18":-0.06199158355593681,"19":-0.1955529749393463,"20":-0.13418351113796234,"21":-0.10176770389080048,"22":0.021829675883054733,"23":-0.1964498609304428,"24":-0.06213095039129257,"25":-0.1459130048751831,"26":0.08125200122594833,"27":0.02756541594862938,"28":-0.0684850811958313,"29":-0.16800782084465027,"30":0.18370184302330017,"31":-0.15981358289718628,"32":-0.17493925988674164,"33":0.1689719408750534,"34":0.09446367621421814,"35":-0.06355892866849899,"36":0.09275944530963898,"37":-0.1849776953458786,"38":0.03949778154492378,"39":0.07294037938117981,"40":0.17787104845046997,"41":-0.1647631675004959,"42":-0.16036103665828705,"43":0.18210390210151672,"44":-0.19419008493423462,"45":0.06728652119636536,"46":-0.17833362519741058,"47":-0.1002432331442833,"48":-0.001982790417969227,"49":0.14110472798347473,"50":-0.1545756608247757,"51":-0.009685604833066463,"52":0.01634233631193638,"53":-0.10420622676610947,"54":0.15564972162246704,"55":0.019118275493383408,"56":0.19385503232479095,"57":-0.14987525343894958,"58":0.14262893795967102,"59":0.06201960891485214,"60":-0.10249294340610504,"61":-0.12895679473876953,"62":-0.027725782245397568,"63":-0.10587699711322784,"64":0.10634814202785492,"65":0.09873930364847183,"66":0.04570500925183296,"67":-0.13699090480804443,"68":0.06897115707397461,"69":0.12036509811878204,"70":0.20218434929847717,"71":0.1871250569820404,"72":0.12480884790420532,"73":0.10709190368652344,"74":-0.20449353754520416,"75":0.14096230268478394,"76":-0.10157903283834457,"77":0.13311029970645905,"78":0.005720566026866436,"79":-0.08605987578630447,"80":0.15727509558200836,"81":-0.13617020845413208,"82":0.14863911271095276,"83":0.19258733093738556,"84":0.07417774945497513,"85":0.1189478188753128,"86":-0.08642368018627167,"87":0.16829492151737213,"88":0.052160222083330154,"89":0.051249563694000244,"90":-0.14598330855369568,"91":0.15009978413581848,"92":-0.04685914143919945,"93":-0.014478495344519615,"94":0.046268563717603683,"95":0.021827930584549904,"96":0.0745258778333664,"97":0.10565537214279175,"98":0.17198511958122253,"99":-0.06452395021915436,"100":0.046580299735069275,"101":0.173874169588089,"102":0.10079614073038101,"103":0.11497911810874939,"104":0.035968679934740067,"105":-0.06631270051002502,"106":-0.04854745417833328,"107":0.11729761958122253,"108":-0.11687596142292023,"109":-0.028366273269057274,"110":0.030966540798544884,"111":-0.10126017779111862,"112":0.09684320539236069,"113":0.10325244069099426,"114":0.12428455054759979,"115":-0.1828651875257492,"116":-0.04957813769578934,"117":-0.0156105263158679,"118":0.16301769018173218,"119":0.11745447665452957,"120":0.17564080655574799,"121":0.12516430020332336,"122":-0.036346130073070526,"123":-0.1616305261850357,"124":-0.1827496737241745,"125":-0.19870470464229584,"126":-0.19157291948795319,"127":0.06460215896368027,"128":-0.17501042783260345,"129":-0.038254790008068085,"130":0.09550297260284424,"131":-0.10719679296016693,"132":-0.02615647204220295,"133":0.14874622225761414,"134":0.06335551291704178,"135":0.06322801858186722,"136":0.08843746036291122,"137":0.015667473897337914,"138":0.19547948241233826,"139":0.05726495757699013,"140":-0.1662868857383728,"141":0.10875824093818665,"142":-0.12137099355459213,"143":0.07810814678668976,"144":0.06611234694719315,"145":0.1989019513130188,"146":0.1591513752937317,"147":-0.037833619862794876,"148":-0.017582789063453674,"149":0.06698065251111984,"150":0.12236356735229492,"151":0.1346205323934555,"152":-0.011455037631094456,"153":-0.16977420449256897,"154":-0.02707485668361187,"155":-0.12762980163097382,"156":0.12274621427059174,"157":-0.037097446620464325,"158":-0.1261640191078186,"159":-0.18265123665332794,"160":0.17946571111679077,"161":0.15649616718292236,"162":0.16674299538135529,"163":-0.12649786472320557,"164":-0.13900016248226166,"165":-0.004436290357261896,"166":-0.12874172627925873,"167":0.07411686331033707,"168":-0.1021169051527977,"169":-0.16032420098781586,"170":-0.11029396206140518,"171":0.06723196804523468,"172":-0.025263335555791855,"173":0.03435511514544487,"174":-0.07562700659036636,"175":-0.07505602389574051,"176":0.0695677250623703,"177":-0.020415863022208214,"178":0.09853678196668625,"179":0.1049145981669426,"180":0.06134137883782387,"181":0.09988811612129211,"182":-0.19489532709121704,"183":-0.0009846262400969863,"184":0.06176379695534706,"185":-0.0008625503396615386,"186":0.1270512342453003,"187":-0.192884162068367,"188":0.10545799136161804,"189":0.07037220150232315,"190":0.015670819208025932,"191":0.16771085560321808,"192":-0.1483854502439499,"193":-0.012513888999819756,"194":-0.13277481496334076,"195":-0.12343114614486694,"196":0.18326185643672943,"197":-0.18283292651176453,"198":-0.17464889585971832,"199":-0.052667103707790375,"200":-0.09708910435438156,"201":0.051990021020174026,"202":-0.19126445055007935,"203":-0.1944904625415802,"204":0.033473607152700424,"205":0.06431445479393005,"206":0.019638650119304657,"207":-0.1164499893784523,"208":0.051873061805963516,"209":0.09812527149915695,"210":0.19231043756008148,"211":0.09122846275568008,"212":0.155878484249115,"213":-0.07642238587141037,"214":0.16423356533050537,"215":0.18161289393901825,"216":0.1885589063167572,"217":0.16021385788917542,"218":0.08243046700954437,"219":-0.06446073204278946,"220":-0.016432005912065506,"221":0.1912878453731537,"222":0.13734763860702515,"223":0.06286565214395523,"224":0.11953707039356232,"225":-0.13859209418296814,"226":0.09255873411893845,"227":-0.13733193278312683,"228":0.0913228690624237,"229":0.010091879405081272,"230":-0.031601909548044205,"231":0.044499706476926804,"232":0.08199970424175262,"233":-0.08408898115158081,"234":-0.1288042813539505,"235":0.14115804433822632,"236":0.10516515374183655,"237":0.0807339996099472,"238":-0.11262594908475876,"239":-0.04255679249763489,"240":-0.08697662502527237,"241":0.18815922737121582,"242":-0.04437612369656563,"243":-0.17940033972263336,"244":-0.012140569277107716,"245":0.18855950236320496,"246":-0.18798673152923584,"247":-0.024460917338728905,"248":-0.12013205885887146,"249":0.10160074383020401,"250":-0.07632571458816528,"251":-0.15647616982460022,"252":-0.08562624454498291,"253":-0.1466110795736313,"254":-0.18298743665218353,"255":0.1292067915201187,"256":0.07692822813987732,"257":-0.023453600704669952,"258":-0.03884947672486305,"259":0.020717274397611618,"260":-0.16019973158836365,"261":-0.10245281457901001,"262":-0.15293602645397186,"263":0.1539178341627121,"264":0.13197216391563416,"265":0.14755702018737793,"266":0.12796570360660553,"267":-0.05237501114606857,"268":0.022059153765439987,"269":-0.09078136086463928,"270":-0.024507485330104828,"271":-0.01693369261920452,"272":0.030772844329476357,"273":0.03941604867577553,"274":-0.15986321866512299,"275":-0.19117052853107452,"276":-0.009384754113852978,"277":0.1956011950969696,"278":0.10946160554885864,"279":-0.14287160336971283,"280":-0.01413445919752121,"281":0.0014141412684693933,"282":0.018106579780578613,"283":0.06932411342859268,"284":0.05252106115221977,"285":0.16224093735218048,"286":-0.08873186260461807,"287":0.1627977043390274,"288":-0.09234687685966492,"289":-0.1942453235387802,"290":0.09576272964477539,"291":-0.05245404690504074,"292":0.011186287738382816,"293":0.16723500192165375,"294":0.09619147330522537,"295":0.061596427112817764,"296":-0.17263993620872498,"297":0.04850000515580177,"298":0.059870798140764236,"299":0.03809578716754913,"300":0.07765892893075943,"301":0.07825425267219543,"302":0.18155880272388458,"303":0.06356564909219742,"304":-0.17334789037704468,"305":-0.043017249554395676,"306":0.05734526738524437,"307":-0.14721260964870453,"308":0.16958080232143402,"309":-0.005985443014651537,"310":-0.006275365594774485,"311":-0.08421575278043747,"312":-0.14998717606067657,"313":0.13012775778770447,"314":0.025967305526137352,"315":-0.16993899643421173,"316":0.0792682021856308,"317":0.19960284233093262,"318":0.016871584579348564,"319":0.03475923091173172,"320":-0.1282672882080078,"321":0.07044121623039246,"322":-0.05642823502421379,"323":-0.12228119373321533,"324":-0.10681546479463577,"325":-0.020602349191904068,"326":0.1415850669145584,"327":-0.020504090934991837,"328":-0.1738257110118866,"329":0.1976865977048874,"330":-0.0050696637481451035,"331":0.11767333745956421,"332":0.07465478777885437,"333":0.12646660208702087,"334":-0.13222546875476837,"335":0.12618696689605713,"336":-0.17095516622066498,"337":-0.11266827583312988,"338":-0.18953916430473328,"339":-0.13382422924041748,"340":-0.18670415878295898,"341":-0.1777200847864151,"342":-0.05421029403805733,"343":-0.09483075141906738,"344":-0.1625329554080963,"345":-0.04214184358716011,"346":-0.1528521627187729,"347":0.08639268577098846,"348":-0.12412789463996887,"349":0.15920691192150116,"350":-0.06493131816387177,"351":0.04657932370901108,"352":-0.010792157612740993,"353":-0.08156425505876541,"354":-0.159347265958786,"355":0.08675021678209305,"356":0.18521346151828766,"357":0.17712341248989105,"358":-0.1252291351556778,"359":0.11090592294931412,"360":0.13261327147483826,"361":-0.17285028100013733,"362":0.1795038878917694,"363":0.15548749268054962,"364":-0.12146919965744019,"365":-0.059970755130052567,"366":-0.17332227528095245,"367":0.13143481314182281,"368":-0.1762765794992447,"369":0.002989326138049364,"370":0.0231991708278656,"371":-0.13189296424388885,"372":0.1216251477599144,"373":0.19984489679336548,"374":-0.07144809514284134,"375":-0.1948062628507614,"376":-0.12185170501470566,"377":-0.13079600036144257,"378":0.018074361607432365,"379":0.12452728301286697,"380":0.1377887725830078,"381":-0.12346560508012772,"382":-0.1293846070766449,"383":0.024154892191290855,"384":0.04729710891842842,"385":0.1133568212389946,"386":0.1146417111158371,"387":-0.1962459534406662,"388":-0.08836011588573456,"389":0.16763825714588165,"390":-0.17399132251739502,"391":0.004641212522983551,"392":-0.01641526259481907,"393":-0.14589886367321014,"394":-0.11800225079059601,"395":0.02087104134261608,"396":0.04068070650100708,"397":0.027272917330265045,"398":0.15936918556690216,"399":-0.12103234231472015,"400":-0.09145132452249527,"401":-0.18958844244480133,"402":-0.006583106238394976,"403":0.03200659155845642,"404":0.0038393293507397175,"405":0.05536843463778496,"406":0.09686915576457977,"407":0.02955148182809353,"408":-0.01923568919301033,"409":-0.1107800081372261,"410":-0.13670103251934052,"411":-0.16912473738193512,"412":0.05975960195064545,"413":-0.17104975879192352,"414":-0.00913282297551632,"415":0.022688718512654305,"416":-0.18624792993068695,"417":-0.14999136328697205,"418":-0.00780683197081089,"419":0.17340128123760223,"420":0.11574140936136246,"421":0.049403704702854156,"422":-0.16254910826683044,"423":0.03167019411921501,"424":-0.02755136229097843,"425":0.0849452093243599,"426":0.15531067550182343,"427":-0.010698989033699036,"428":0.03225979954004288,"429":-0.1868796944618225,"430":-0.17282965779304504,"431":-0.0033720717765390873,"432":-0.08237156271934509,"433":-0.14296923577785492,"434":0.1647004634141922,"435":-0.0731968805193901,"436":-0.1621382087469101,"437":0.09685292840003967,"438":-0.18541228771209717,"439":0.18054428696632385,"440":0.10405898839235306,"441":0.10943274199962616,"442":-0.03501035273075104,"443":0.1543465554714203,"444":0.18645107746124268,"445":-0.04631386697292328,"446":-0.1948782056570053,"447":0.11075319349765778,"448":-0.1280914694070816,"449":-0.1280951350927353,"450":0.061963871121406555,"451":-0.13656561076641083,"452":-0.18964140117168427,"453":-0.019373636692762375,"454":-0.09537819027900696,"455":0.04402667284011841,"456":0.032547444105148315,"457":-0.1778850555419922,"458":0.029530471190810204,"459":0.152283176779747,"460":0.11346796900033951,"461":0.013982003554701805,"462":0.020352281630039215,"463":-0.11269836872816086,"464":0.09370124340057373,"465":0.15726123750209808,"466":0.15347982943058014,"467":0.04707161709666252,"468":0.10657263547182083,"469":-0.0010489627020433545,"470":0.10086455941200256,"471":0.15888115763664246,"472":-0.16599126160144806,"473":-0.03417898342013359,"474":-0.11370204389095306,"475":-0.04217369854450226,"476":0.07369906455278397,"477":-0.09652156382799149,"478":-0.06709524244070053,"479":-0.18907949328422546,"480":-0.13066503405570984,"481":0.019680138677358627,"482":0.10320890694856644,"483":0.06569915264844894,"484":-0.1926996409893036,"485":0.19729606807231903,"486":0.1647367924451828,"487":0.06510080397129059,"488":-0.16352692246437073,"489":0.11801132559776306,"490":0.09902963787317276,"491":0.1619989424943924,"492":-0.16357693076133728,"493":0.11019375920295715,"494":0.08546881377696991,"495":-0.09544690698385239,"496":-0.08727572858333588,"497":0.10266421735286713,"498":0.049269452691078186,"499":-0.19108085334300995}},"2":{"bias":-0.10860106348991394,"weights":{"0":0.060425762087106705,"1":0.05995965376496315,"2":0.10974129289388657,"3":-0.013784905895590782,"4":0.05723152309656143,"5":0.03234072029590607,"6":0.037443891167640686,"7":0.08665662258863449,"8":-0.05286860466003418,"9":0.18041600286960602,"10":0.08058314025402069,"11":0.0461093969643116,"12":0.036632880568504333,"13":-0.0201655812561512,"14":-0.007034782320261002,"15":0.05054366588592529,"16":0.07445572316646576,"17":0.0002831013407558203,"18":-0.19747522473335266,"19":0.14576935768127441,"20":-0.07359027117490768,"21":-0.10468723624944687,"22":-0.05963161215186119,"23":0.15553300082683563,"24":0.0008710915572009981,"25":0.14084464311599731,"26":-0.01804475672543049,"27":0.022206157445907593,"28":0.010264787822961807,"29":-0.1849256306886673,"30":-0.17562344670295715,"31":0.18811611831188202,"32":0.03353910148143768,"33":0.12158647179603577,"34":-0.015117193572223186,"35":0.12430617958307266,"36":-0.10022784769535065,"37":-0.15776333212852478,"38":0.18852758407592773,"39":0.17506416141986847,"40":-0.1649623066186905,"41":-0.19469086825847626,"42":0.10717523097991943,"43":0.061917826533317566,"44":0.13679206371307373,"45":-0.15619780123233795,"46":-0.05237630382180214,"47":0.1204535961151123,"48":0.09387364983558655,"49":-0.022271033376455307,"50":-0.1681033968925476,"51":-0.09360726922750473,"52":-0.038644544780254364,"53":0.09596765786409378,"54":-0.14979706704616547,"55":-0.03184475749731064,"56":-0.049470048397779465,"57":0.19890202581882477,"58":0.09990338236093521,"59":0.19626885652542114,"60":-0.12478350102901459,"61":0.10227978974580765,"62":-0.11192286759614944,"63":-0.19952914118766785,"64":0.12782540917396545,"65":-0.15691033005714417,"66":0.09704606235027313,"67":-0.09629983454942703,"68":0.1037234514951706,"69":0.16325826942920685,"70":-0.10690101981163025,"71":0.0038154360372573137,"72":0.007188125047832727,"73":0.15558995306491852,"74":-0.17631861567497253,"75":0.12321718037128448,"76":-0.18322011828422546,"77":-0.10168389976024628,"78":-0.04844052717089653,"79":0.08658173680305481,"80":0.13503403961658478,"81":0.08058690279722214,"82":0.18700958788394928,"83":-0.002827499760314822,"84":-0.1944536417722702,"85":-0.03363252803683281,"86":-0.049323562532663345,"87":0.13255204260349274,"88":0.1741284281015396,"89":-0.13339561223983765,"90":-0.10826173424720764,"91":-0.20315295457839966,"92":0.07400128990411758,"93":0.16240134835243225,"94":0.17015409469604492,"95":-0.06067478284239769,"96":0.0830342099070549,"97":0.1438421756029129,"98":-0.09999316185712814,"99":0.041810549795627594,"100":-0.10678738355636597,"101":0.11516890674829483,"102":-0.09880769997835159,"103":-0.15906007587909698,"104":0.17612263560295105,"105":0.15512925386428833,"106":-0.020999137312173843,"107":0.0694800615310669,"108":0.022930370643734932,"109":0.15653105080127716,"110":-0.08613253384828568,"111":-0.01188048068434,"112":0.09772787243127823,"113":0.17071333527565002,"114":-0.004989053122699261,"115":-0.08009036630392075,"116":-0.04662628844380379,"117":0.19545908272266388,"118":-0.0277863759547472,"119":0.09549925476312637,"120":0.16509972512722015,"121":-0.04846436157822609,"122":-0.0800526887178421,"123":-0.09196823090314865,"124":-0.08060815930366516,"125":0.1353498250246048,"126":0.0645475909113884,"127":-0.142028346657753,"128":-0.1964109092950821,"129":0.14458531141281128,"130":0.08087345212697983,"131":-0.1263210028409958,"132":-0.09185059368610382,"133":-0.15925981104373932,"134":-0.14536656439304352,"135":-0.03701701760292053,"136":0.053324706852436066,"137":-0.023765359073877335,"138":0.04241441935300827,"139":-0.030781693756580353,"140":0.0672115683555603,"141":0.011541805230081081,"142":-0.03758078068494797,"143":-0.10683748871088028,"144":0.09185872226953506,"145":0.05645328760147095,"146":-0.005359150003641844,"147":0.1584562510251999,"148":-0.010118183679878712,"149":-0.004064294975250959,"150":-0.1702081859111786,"151":0.10376115888357162,"152":-0.09537497162818909,"153":-0.16291344165802002,"154":-0.011011304333806038,"155":-0.12582823634147644,"156":-0.15116049349308014,"157":-0.19342926144599915,"158":0.15020546317100525,"159":-0.057106468826532364,"160":-0.037105459719896317,"161":-0.10697384923696518,"162":0.19487859308719635,"163":-0.1071862280368805,"164":-0.1980436146259308,"165":0.12294319272041321,"166":-0.10492528975009918,"167":-0.14932186901569366,"168":-0.11787600070238113,"169":0.11311488598585129,"170":-0.04682168364524841,"171":0.10474187880754471,"172":-0.024467946961522102,"173":0.06005800887942314,"174":-0.15845315158367157,"175":0.05137575417757034,"176":0.1750648021697998,"177":-0.08104568719863892,"178":0.19865895807743073,"179":-0.05849535018205643,"180":0.0011527836322784424,"181":-0.10394572466611862,"182":-0.19559156894683838,"183":0.15695782005786896,"184":-0.1621353030204773,"185":-0.01811906136572361,"186":0.18437044322490692,"187":-0.0728345513343811,"188":0.19452597200870514,"189":0.10199088603258133,"190":0.09648647904396057,"191":0.18706388771533966,"192":0.1414676308631897,"193":-0.0937931090593338,"194":0.06926041096448898,"195":0.1263725906610489,"196":-0.0493369959294796,"197":0.19411557912826538,"198":-0.06688579171895981,"199":0.15934771299362183,"200":-0.1589168757200241,"201":-0.1854555606842041,"202":-0.06817562133073807,"203":-0.18446704745292664,"204":0.006102141924202442,"205":0.10716846585273743,"206":-0.17724643647670746,"207":-0.1201646700501442,"208":0.1512855440378189,"209":-0.1130794808268547,"210":0.07036373764276505,"211":0.08016558736562729,"212":-0.11158598214387894,"213":0.11649931222200394,"214":-0.17545092105865479,"215":0.0491960272192955,"216":0.12029024213552475,"217":0.1877755969762802,"218":0.16937078535556793,"219":-0.09309858083724976,"220":0.14989416301250458,"221":-0.09063155204057693,"222":-0.06155228242278099,"223":-0.13142426311969757,"224":0.18161463737487793,"225":0.09964900463819504,"226":-0.1587304025888443,"227":-0.025422118604183197,"228":0.03566695377230644,"229":-0.07154874503612518,"230":0.19051051139831543,"231":-0.13916809856891632,"232":-0.0991080179810524,"233":-0.18640704452991486,"234":0.1673465520143509,"235":-0.002492220140993595,"236":-0.10070012509822845,"237":-0.06752243638038635,"238":0.0888071358203888,"239":-0.10145563632249832,"240":-0.14589233696460724,"241":0.16358843445777893,"242":0.04084896296262741,"243":0.0590665303170681,"244":0.13588231801986694,"245":0.04590347036719322,"246":0.14741741120815277,"247":-0.18200843036174774,"248":0.07761013507843018,"249":-0.04633370414376259,"250":-0.005663765594363213,"251":-0.11902590095996857,"252":-0.11156966537237167,"253":0.10840078443288803,"254":-0.14545638859272003,"255":0.11019513010978699,"256":-0.047122012823820114,"257":-0.0674089640378952,"258":-0.028903227299451828,"259":0.1500752568244934,"260":0.07014534622430801,"261":-0.036137841641902924,"262":-0.13823135197162628,"263":-0.025045989081263542,"264":0.16842126846313477,"265":0.13667766749858856,"266":0.08912349492311478,"267":-0.12294124811887741,"268":-0.07345996052026749,"269":-0.17536097764968872,"270":0.001538907759822905,"271":0.09550240635871887,"272":0.07191438972949982,"273":0.17659783363342285,"274":-0.08671236038208008,"275":-0.05728878825902939,"276":0.0654660016298294,"277":-0.032413091510534286,"278":-0.15324968099594116,"279":0.02016819268465042,"280":0.06702755391597748,"281":-0.1397373229265213,"282":0.07552337646484375,"283":-0.05290869250893593,"284":0.1777966171503067,"285":0.1931319534778595,"286":-0.08832617849111557,"287":0.19071607291698456,"288":-0.1190042719244957,"289":-0.054719939827919006,"290":0.19835980236530304,"291":-0.05831369012594223,"292":0.0004807078221347183,"293":0.052205588668584824,"294":-0.02087210677564144,"295":0.12048139423131943,"296":0.1276625394821167,"297":-0.0746845081448555,"298":0.052905600517988205,"299":-0.18215836584568024,"300":-0.07552169263362885,"301":-0.059462592005729675,"302":0.08252495527267456,"303":0.06260668486356735,"304":0.1711287945508957,"305":0.1679660826921463,"306":0.1634780913591385,"307":0.18452449142932892,"308":-0.11272922158241272,"309":0.16138185560703278,"310":0.19718250632286072,"311":-0.0649643987417221,"312":0.0022421434987336397,"313":-0.0715104192495346,"314":0.004995741881430149,"315":0.12745073437690735,"316":-0.007751331198960543,"317":0.11128915846347809,"318":-0.053847916424274445,"319":-0.10173484683036804,"320":0.049722231924533844,"321":0.01454176101833582,"322":0.031268149614334106,"323":0.17410750687122345,"324":0.1762489527463913,"325":-0.0871380940079689,"326":0.0407145619392395,"327":-0.11896543204784393,"328":0.02579588256776333,"329":0.1026809960603714,"330":0.14117281138896942,"331":0.07622601836919785,"332":-0.1971363127231598,"333":-0.0031358799897134304,"334":-0.16566728055477142,"335":0.1987559050321579,"336":-0.14928437769412994,"337":-0.00823766365647316,"338":0.06637469679117203,"339":-0.1877545267343521,"340":-0.13236135244369507,"341":0.04593579098582268,"342":0.11466780304908752,"343":-0.10364241898059845,"344":-0.01144099049270153,"345":0.11646349728107452,"346":-0.16537724435329437,"347":-0.0778612568974495,"348":-0.046725668013095856,"349":-0.1198415458202362,"350":0.08329413086175919,"351":0.02383141964673996,"352":0.1929112821817398,"353":0.15025107562541962,"354":-0.01600291021168232,"355":0.057747982442379,"356":0.13239941000938416,"357":-0.05598388612270355,"358":-0.10103629529476166,"359":0.1628849059343338,"360":-0.022725019603967667,"361":0.06422911584377289,"362":-0.11046967655420303,"363":-0.1251666396856308,"364":0.06275027990341187,"365":0.056888360530138016,"366":0.1974281370639801,"367":-0.07750172913074493,"368":-0.014691811986267567,"369":0.1625365912914276,"370":0.0384700708091259,"371":-0.1678808033466339,"372":0.1498294174671173,"373":0.1768733114004135,"374":-0.0178019218146801,"375":-0.0046425811015069485,"376":0.12654238939285278,"377":0.12327577918767929,"378":-0.017516445368528366,"379":0.12155865877866745,"380":-0.19750939309597015,"381":0.18793250620365143,"382":0.003949143923819065,"383":-0.15651214122772217,"384":0.04127836227416992,"385":-0.011507357470691204,"386":0.05407689884305,"387":-0.13654851913452148,"388":0.08938531577587128,"389":0.09206277132034302,"390":0.027813337743282318,"391":0.055618707090616226,"392":-0.10122774541378021,"393":-0.06500602513551712,"394":0.14340552687644958,"395":-0.18809516727924347,"396":-0.01857224851846695,"397":0.03806443512439728,"398":-0.0808325782418251,"399":0.10734758526086807,"400":-0.05255429074168205,"401":0.14765535295009613,"402":-0.00940990261733532,"403":0.15825022757053375,"404":0.17890627682209015,"405":-0.152764230966568,"406":-0.024556519463658333,"407":0.0785849392414093,"408":-0.05450223386287689,"409":0.05093636363744736,"410":-0.04462866112589836,"411":-0.18357636034488678,"412":0.1245335042476654,"413":-0.14016473293304443,"414":-0.04521365836262703,"415":0.10052845627069473,"416":0.1689293533563614,"417":0.0064648473635315895,"418":0.1986955851316452,"419":-0.18172357976436615,"420":0.09781347215175629,"421":0.17018787562847137,"422":-0.13842105865478516,"423":0.07864634692668915,"424":-0.04479147121310234,"425":0.17038556933403015,"426":-0.02467055805027485,"427":-0.10133911669254303,"428":-0.169420063495636,"429":0.19735479354858398,"430":-0.04880311340093613,"431":0.02936587668955326,"432":-0.12222962081432343,"433":-0.06341978162527084,"434":-0.013703265227377415,"435":0.008592015132308006,"436":-0.17976737022399902,"437":0.18872903287410736,"438":-0.12406076490879059,"439":-0.019365111365914345,"440":0.06380797922611237,"441":-0.062212031334638596,"442":-0.08859879523515701,"443":-0.009596374817192554,"444":0.11519210040569305,"445":-0.08568797260522842,"446":-0.12379356473684311,"447":-0.05557028949260712,"448":0.13719111680984497,"449":0.04136679694056511,"450":-0.04254848510026932,"451":-0.16094139218330383,"452":-0.004062139894813299,"453":0.007405274081975222,"454":-0.10346485674381256,"455":0.021481353789567947,"456":0.10966989398002625,"457":0.046172093600034714,"458":-0.046146705746650696,"459":-0.040085140615701675,"460":0.18087458610534668,"461":-0.1045544296503067,"462":0.052208270877599716,"463":-0.029169179499149323,"464":0.11391044408082962,"465":-0.12005636096000671,"466":-0.11596670746803284,"467":0.10174783319234848,"468":0.043680861592292786,"469":-0.17432039976119995,"470":-0.1402151882648468,"471":0.19912070035934448,"472":0.18869251012802124,"473":-0.09763976186513901,"474":-0.12502698600292206,"475":0.05872157961130142,"476":-0.11120720952749252,"477":-0.1971750557422638,"478":0.07087622582912445,"479":-0.1993442326784134,"480":-0.003817278426140547,"481":-0.14039476215839386,"482":0.0798959732055664,"483":0.18972866237163544,"484":-0.0171589944511652,"485":0.05242542549967766,"486":0.026405351236462593,"487":0.1185731440782547,"488":0.13957732915878296,"489":0.1060083657503128,"490":-0.19962719082832336,"491":0.08308875560760498,"492":0.11725754290819168,"493":-0.039076920598745346,"494":0.19690917432308197,"495":-0.09465869516134262,"496":0.07331093400716782,"497":0.1871093511581421,"498":0.142893984913826,"499":-0.0739208534359932}},"3":{"bias":-0.13797156512737274,"weights":{"0":-0.20682457089424133,"1":-0.14619046449661255,"2":-0.06092815846204758,"3":-0.011158496141433716,"4":-0.028793001547455788,"5":-0.16019976139068604,"6":0.2330709844827652,"7":0.22436733543872833,"8":-0.15119701623916626,"9":0.06811325252056122,"10":-0.06616510450839996,"11":-0.20703516900539398,"12":0.2109779715538025,"13":0.07373938709497452,"14":0.1490657776594162,"15":-0.06220385804772377,"16":-0.10484738647937775,"17":-0.09120041877031326,"18":0.13850753009319305,"19":0.10493278503417969,"20":-0.08152421563863754,"21":-0.05516111105680466,"22":-0.2152266651391983,"23":-0.19027090072631836,"24":0.013804986141622066,"25":0.03438415378332138,"26":-0.07015225291252136,"27":0.13428957760334015,"28":0.1966995745897293,"29":-0.03083004057407379,"30":-0.09988237917423248,"31":0.041404373943805695,"32":0.07362615317106247,"33":0.07738842815160751,"34":0.18696090579032898,"35":0.049469564110040665,"36":0.07074689865112305,"37":-0.0005904563004150987,"38":0.012400775216519833,"39":0.1778024286031723,"40":-0.09855646640062332,"41":0.18170945346355438,"42":0.0010832770494744182,"43":-0.023819956928491592,"44":0.06509877741336823,"45":0.10829594731330872,"46":-0.046875257045030594,"47":-0.06556807458400726,"48":0.1558578610420227,"49":-0.14674802124500275,"50":0.2339712530374527,"51":0.01751885563135147,"52":-0.04880577325820923,"53":0.06867802888154984,"54":-0.026460958644747734,"55":0.17711348831653595,"56":-0.21158672869205475,"57":-0.159732848405838,"58":0.1492108851671219,"59":-0.060830242931842804,"60":-0.054496657103300095,"61":-0.0388568639755249,"62":0.04625910148024559,"63":-0.1786634474992752,"64":0.035371262580156326,"65":0.002318261656910181,"66":-0.066485196352005,"67":-0.1253880113363266,"68":0.08553986996412277,"69":0.04660496488213539,"70":-0.07154053449630737,"71":0.18988968431949615,"72":-0.10181854665279388,"73":0.206211656332016,"74":-0.002656643046066165,"75":-0.08782828599214554,"76":-0.10720514506101608,"77":-0.03606678545475006,"78":-0.12083839625120163,"79":-0.20149053633213043,"80":-0.12884026765823364,"81":-0.12077684700489044,"82":-0.04216384515166283,"83":0.029237553477287292,"84":-0.15071189403533936,"85":-0.17645953595638275,"86":-0.2053864747285843,"87":0.15015943348407745,"88":0.06733497232198715,"89":0.1091884896159172,"90":0.005215032957494259,"91":0.0847553163766861,"92":-0.055131420493125916,"93":0.07572206854820251,"94":-0.10023127496242523,"95":-0.08965380489826202,"96":-0.09573794901371002,"97":-0.06639799475669861,"98":-0.06992232799530029,"99":0.1662798970937729,"100":-0.10942325741052628,"101":0.00748156663030386,"102":-0.04653007164597511,"103":-0.05242903530597687,"104":0.03159869462251663,"105":-0.09226970374584198,"106":0.160993754863739,"107":-0.03675965964794159,"108":0.15681733191013336,"109":0.19808083772659302,"110":-0.06441265344619751,"111":0.1812843382358551,"112":-0.027122680097818375,"113":-0.14873053133487701,"114":-0.17628303170204163,"115":0.07953900843858719,"116":0.1972966492176056,"117":-0.04433697089552879,"118":0.09717564284801483,"119":-0.052790939807891846,"120":-0.10458412021398544,"121":-0.021309155970811844,"122":-0.08732548356056213,"123":0.15452516078948975,"124":0.05747170373797417,"125":-0.10197819769382477,"126":-0.029016956686973572,"127":-0.03086574748158455,"128":0.15649034082889557,"129":0.13083229959011078,"130":-0.058642979711294174,"131":-0.16905736923217773,"132":-0.03499909117817879,"133":-0.11439907550811768,"134":-0.017740540206432343,"135":0.14432914555072784,"136":-0.08036161214113235,"137":0.03654412180185318,"138":-0.11491445451974869,"139":0.0054932269267737865,"140":0.05422047898173332,"141":0.0941171795129776,"142":-0.17423304915428162,"143":0.02011316828429699,"144":-0.18684761226177216,"145":0.19561852514743805,"146":-0.08051063120365143,"147":-0.1666964441537857,"148":0.08937321603298187,"149":-0.12463066726922989,"150":-0.16387204825878143,"151":0.009179639630019665,"152":0.07975663989782333,"153":-0.10005335509777069,"154":0.12131986021995544,"155":0.021811693906784058,"156":-0.048356108367443085,"157":-0.17802119255065918,"158":-0.19795285165309906,"159":0.013100278563797474,"160":0.037743907421827316,"161":-0.09064147621393204,"162":0.134035125374794,"163":0.12962393462657928,"164":0.107706718146801,"165":0.16882720589637756,"166":-0.016510842368006706,"167":-0.032430797815322876,"168":0.12774498760700226,"169":0.011717655695974827,"170":-0.09209068864583969,"171":-0.17529186606407166,"172":0.10909955203533173,"173":0.15226145088672638,"174":0.1599663645029068,"175":-0.1626703441143036,"176":-0.145436629652977,"177":0.18134376406669617,"178":-0.004142427816987038,"179":-0.0761239156126976,"180":-0.003859495045617223,"181":0.09404439479112625,"182":-0.08282231539487839,"183":-0.02993934601545334,"184":0.11580093950033188,"185":0.018422313034534454,"186":-0.15778900682926178,"187":0.11613491922616959,"188":-0.16415728628635406,"189":0.1926417201757431,"190":-0.0366387665271759,"191":-0.18045897781848907,"192":0.1731402575969696,"193":-0.1380835622549057,"194":0.15612107515335083,"195":0.1830347627401352,"196":0.10027708113193512,"197":0.03828364238142967,"198":0.18584419786930084,"199":0.10555554926395416,"200":0.1816226989030838,"201":0.14872878789901733,"202":0.1871715933084488,"203":-0.12335843592882156,"204":0.13943642377853394,"205":0.13830795884132385,"206":-0.16088618338108063,"207":0.06462543457746506,"208":-0.017034118995070457,"209":-0.13458439707756042,"210":-0.034281715750694275,"211":-0.18934336304664612,"212":-0.10742577165365219,"213":-0.10749416053295135,"214":-0.15528357028961182,"215":0.13351917266845703,"216":-0.09418384730815887,"217":0.030982177704572678,"218":-0.18970616161823273,"219":-0.07810366898775101,"220":0.021734965965151787,"221":-0.1331007033586502,"222":-0.025361208245158195,"223":-0.02569088339805603,"224":-0.16257010400295258,"225":0.043073080480098724,"226":0.12915350496768951,"227":0.0649307519197464,"228":-0.027157215401530266,"229":0.11204804480075836,"230":-0.17025011777877808,"231":-0.03722843527793884,"232":-0.06836190074682236,"233":-0.007769223302602768,"234":-0.12502340972423553,"235":-0.0011110201012343168,"236":-0.07055230438709259,"237":-0.07060758769512177,"238":0.12116822600364685,"239":0.0016481404891237617,"240":0.05049653351306915,"241":0.04277961328625679,"242":0.13061577081680298,"243":0.10989834368228912,"244":0.03283621743321419,"245":-0.10975906997919083,"246":0.07232146710157394,"247":-0.04099612683057785,"248":-0.17079351842403412,"249":0.12105455994606018,"250":-0.06657189875841141,"251":-0.014175698161125183,"252":-0.03987542912364006,"253":-0.15621404349803925,"254":-0.19472487270832062,"255":0.005111807957291603,"256":-0.1788906306028366,"257":-0.04847287759184837,"258":0.05992957204580307,"259":0.1256619244813919,"260":-0.11917571723461151,"261":0.039353903383016586,"262":0.03819627687335014,"263":0.04457384720444679,"264":0.09599268436431885,"265":0.005040244664996862,"266":0.13550753891468048,"267":0.12048840522766113,"268":-0.18164145946502686,"269":-0.12863922119140625,"270":0.07251889258623123,"271":0.15930788218975067,"272":0.06531336158514023,"273":-0.16891683638095856,"274":0.08361588418483734,"275":0.051682185381650925,"276":0.17145046591758728,"277":0.11370570957660675,"278":-0.19800853729248047,"279":0.08866503089666367,"280":-0.09911944717168808,"281":0.19667501747608185,"282":-0.11644142121076584,"283":-0.08906622231006622,"284":-0.024065734818577766,"285":-0.08173171430826187,"286":-0.1628684401512146,"287":-0.18611624836921692,"288":0.044638846069574356,"289":0.14614348113536835,"290":0.10698630660772324,"291":0.18467827141284943,"292":0.02438916079699993,"293":0.1678587794303894,"294":-0.047837208956480026,"295":0.16483651101589203,"296":-0.0064307223074138165,"297":0.06432919204235077,"298":-0.12748666107654572,"299":-0.19638535380363464,"300":0.04753294959664345,"301":0.1763424575328827,"302":0.09295090287923813,"303":0.18227078020572662,"304":0.09201433509588242,"305":0.14347073435783386,"306":-0.041956234723329544,"307":0.17364810407161713,"308":-0.07714395225048065,"309":-0.10760229080915451,"310":-0.002345945918932557,"311":0.006393945310264826,"312":-0.12554341554641724,"313":-0.07736872881650925,"314":-0.03471273183822632,"315":0.1082046777009964,"316":-0.15754982829093933,"317":0.14159691333770752,"318":0.18469853699207306,"319":-0.14793109893798828,"320":0.12613895535469055,"321":-0.027675354853272438,"322":-0.008290332742035389,"323":0.024754023179411888,"324":0.1314077079296112,"325":-0.12301808595657349,"326":-0.15821793675422668,"327":-0.12429071962833405,"328":0.1712859869003296,"329":-0.027015822008252144,"330":-0.019320206716656685,"331":0.11241461336612701,"332":-0.14696034789085388,"333":0.12928812205791473,"334":-0.006975498050451279,"335":0.11433958262205124,"336":-0.19246163964271545,"337":0.10032875835895538,"338":0.13469475507736206,"339":0.18613098561763763,"340":-0.03226326406002045,"341":-0.19993284344673157,"342":-0.13459613919258118,"343":0.09860146790742874,"344":0.1026313453912735,"345":0.17079591751098633,"346":-0.18422389030456543,"347":-0.13619354367256165,"348":-0.04996084049344063,"349":-0.1644325852394104,"350":0.19350410997867584,"351":0.1742323786020279,"352":-0.09672325849533081,"353":-0.14206057786941528,"354":0.12097691744565964,"355":-0.04404603689908981,"356":-0.14432600140571594,"357":0.103655144572258,"358":-0.021345535293221474,"359":-0.0981578603386879,"360":-0.1517631709575653,"361":0.03386882692575455,"362":-0.03379770368337631,"363":0.042295873165130615,"364":-0.16762152314186096,"365":-0.17773191630840302,"366":0.17226620018482208,"367":0.020688088610768318,"368":-0.011355911381542683,"369":0.022459251806139946,"370":0.08834964781999588,"371":-0.1445624828338623,"372":-0.03643388673663139,"373":0.0338088721036911,"374":-0.03661883994936943,"375":0.021437471732497215,"376":0.09493720531463623,"377":0.07892195880413055,"378":-0.033631354570388794,"379":0.06308655440807343,"380":0.13912026584148407,"381":-0.09592898935079575,"382":0.09429040551185608,"383":0.1996583193540573,"384":-0.0009107688092626631,"385":-0.04631604626774788,"386":-0.15199722349643707,"387":0.022623274475336075,"388":-0.19007007777690887,"389":-0.06435506790876389,"390":0.09271375834941864,"391":0.014150154776871204,"392":0.034225404262542725,"393":-0.18131837248802185,"394":-0.125265970826149,"395":0.08141205459833145,"396":-0.07903226464986801,"397":-0.008854265324771404,"398":-0.1927987039089203,"399":0.13395817577838898,"400":0.05486643686890602,"401":0.035922206938266754,"402":0.10536119341850281,"403":-0.1963687539100647,"404":-0.11103925853967667,"405":-0.0037650924641638994,"406":-0.031105810776352882,"407":0.16919274628162384,"408":-0.1892354041337967,"409":-0.1834426373243332,"410":-0.18475617468357086,"411":0.1543191522359848,"412":0.06048675626516342,"413":0.16146507859230042,"414":0.11365526169538498,"415":-0.08734723925590515,"416":0.18230818212032318,"417":0.13895158469676971,"418":-0.1284773200750351,"419":0.05583328381180763,"420":0.14895781874656677,"421":0.10886771231889725,"422":-0.12367667257785797,"423":-0.1788792908191681,"424":-0.015431593172252178,"425":0.18306919932365417,"426":0.01685561239719391,"427":-0.1296372413635254,"428":0.044737573713064194,"429":-0.009050985798239708,"430":-0.073299340903759,"431":-0.184912770986557,"432":-0.12545721232891083,"433":-0.0026619834825396538,"434":-0.0899837464094162,"435":0.03202733024954796,"436":0.168313667178154,"437":-0.11040187627077103,"438":-0.15496622025966644,"439":0.0651632696390152,"440":-0.19870035350322723,"441":0.12044594436883926,"442":0.0028798922430723906,"443":0.026554927229881287,"444":-0.13010245561599731,"445":0.19190403819084167,"446":-0.053373076021671295,"447":0.06803258508443832,"448":-0.1866564303636551,"449":-0.06668847799301147,"450":-0.13419799506664276,"451":-0.1593479961156845,"452":0.05769761651754379,"453":0.10378734022378922,"454":-0.19253110885620117,"455":0.04327524080872536,"456":-0.061665166169404984,"457":0.080887071788311,"458":-0.1960412710905075,"459":-0.12517279386520386,"460":-0.12167268246412277,"461":0.03989178687334061,"462":-0.020283857360482216,"463":0.15420569479465485,"464":0.1744660586118698,"465":-0.16067953407764435,"466":0.12995465099811554,"467":-0.10220186412334442,"468":0.05884315073490143,"469":0.04279989376664162,"470":-0.19476190209388733,"471":-0.1712535321712494,"472":0.0033068873453885317,"473":-0.08193168044090271,"474":0.08144457638263702,"475":-0.1791393756866455,"476":-0.17957933247089386,"477":0.09952431917190552,"478":0.17075759172439575,"479":0.18862353265285492,"480":-0.14692126214504242,"481":0.1233179047703743,"482":-0.022532397881150246,"483":0.1222589910030365,"484":-0.14794649183750153,"485":-0.1895616203546524,"486":-0.11874602735042572,"487":0.1706063151359558,"488":-0.048742640763521194,"489":-0.10466352850198746,"490":-0.00033276647445745766,"491":0.13743016123771667,"492":-0.16667939722537994,"493":-0.15162470936775208,"494":0.11524096876382828,"495":-0.0038653104566037655,"496":-0.17232733964920044,"497":-0.18148715794086456,"498":0.1722039133310318,"499":-0.004325325600802898}},"4":{"bias":-0.19847193360328674,"weights":{"0":-0.19321337342262268,"1":0.01414418499916792,"2":-0.12488539516925812,"3":0.06980898976325989,"4":0.007704985793679953,"5":-0.0465337410569191,"6":0.07566595077514648,"7":-0.014877216890454292,"8":-0.08827487379312515,"9":-0.16065174341201782,"10":0.11626576632261276,"11":-0.16406852006912231,"12":0.053149498999118805,"13":0.10360702872276306,"14":0.08512382954359055,"15":-0.013791270554065704,"16":0.11955548077821732,"17":0.1419241577386856,"18":0.11901136487722397,"19":-0.1982983499765396,"20":0.1452765017747879,"21":0.010014772415161133,"22":0.17129406332969666,"23":0.0884736031293869,"24":-0.00037394079845398664,"25":-0.13591136038303375,"26":-0.12007055431604385,"27":-0.18187792599201202,"28":-0.12259019166231155,"29":0.0840570479631424,"30":-0.08632572740316391,"31":-0.18373912572860718,"32":-0.055739063769578934,"33":-0.07259576767683029,"34":-0.14712274074554443,"35":0.15307973325252533,"36":0.13196109235286713,"37":0.08564755320549011,"38":0.14354659616947174,"39":-0.1051994115114212,"40":0.09956717491149902,"41":0.12984123826026917,"42":-0.01646498776972294,"43":-0.0706651359796524,"44":-0.06035606563091278,"45":-0.08825870603322983,"46":-0.11572075635194778,"47":0.010597968474030495,"48":-0.1085021048784256,"49":0.07512596994638443,"50":0.1455717384815216,"51":-0.12426137924194336,"52":-0.12851573526859283,"53":0.0765901654958725,"54":0.15249507129192352,"55":-0.14394377171993256,"56":0.0599328838288784,"57":-0.014280663803219795,"58":-0.19253668189048767,"59":-0.15675340592861176,"60":-0.0990852415561676,"61":0.0129978833720088,"62":0.026278182864189148,"63":-0.09621046483516693,"64":-0.039180658757686615,"65":0.05871020630002022,"66":-0.06869205832481384,"67":0.1514303982257843,"68":-0.13246572017669678,"69":-0.09376352280378342,"70":-0.20821240544319153,"71":-0.11735665053129196,"72":-0.15563222765922546,"73":-0.1426403969526291,"74":0.06179359555244446,"75":0.1542501449584961,"76":0.10652275383472443,"77":0.07289343327283859,"78":0.19106347858905792,"79":0.1845705509185791,"80":0.0983608216047287,"81":0.15823300182819366,"82":0.08693108707666397,"83":0.016964783892035484,"84":0.03361165523529053,"85":0.027360141277313232,"86":-0.06236252188682556,"87":0.12379749864339828,"88":-0.19542285799980164,"89":-0.014782147482037544,"90":-0.12209609895944595,"91":0.07444267719984055,"92":-0.0745893195271492,"93":0.17876124382019043,"94":-0.10487370938062668,"95":-0.07343166321516037,"96":-0.11348274350166321,"97":-0.16238999366760254,"98":-0.13715673983097076,"99":-0.1578558385372162,"100":0.14224517345428467,"101":0.05149766802787781,"102":-0.02311704121530056,"103":0.09548227488994598,"104":-0.10092578828334808,"105":0.1142873540520668,"106":0.1737043857574463,"107":-0.03312397003173828,"108":-0.06317805498838425,"109":0.1904585361480713,"110":-0.06956245005130768,"111":0.039591316133737564,"112":-0.0517798587679863,"113":-0.06962300837039948,"114":0.0909680500626564,"115":0.07852868735790253,"116":-0.10862860083580017,"117":-0.07401075959205627,"118":-0.039153046905994415,"119":0.0018995265709236264,"120":-0.14066922664642334,"121":-0.10958599299192429,"122":0.045599985867738724,"123":-0.09621591120958328,"124":0.04241160303354263,"125":-0.19462737441062927,"126":0.062200870364904404,"127":0.042732443660497665,"128":0.07966578751802444,"129":0.10641376674175262,"130":0.18201307952404022,"131":0.091702900826931,"132":-0.1650594174861908,"133":0.1853691190481186,"134":0.1803365796804428,"135":-0.06550966203212738,"136":0.052908942103385925,"137":0.11377976834774017,"138":0.028624504804611206,"139":0.10761764645576477,"140":0.09938511997461319,"141":-0.06030712276697159,"142":0.15262767672538757,"143":-0.13763003051280975,"144":-0.09525756537914276,"145":0.1568342000246048,"146":-0.011464002542197704,"147":-0.1383523792028427,"148":0.17421679198741913,"149":-0.023276597261428833,"150":-0.04381749778985977,"151":-0.13387136161327362,"152":0.1542382389307022,"153":-0.07911096513271332,"154":-0.021475182846188545,"155":-0.11300738900899887,"156":0.15836584568023682,"157":0.09940661489963531,"158":0.051177822053432465,"159":-0.05042101815342903,"160":0.15611137449741364,"161":-0.03889560326933861,"162":-0.16935387253761292,"163":-0.1009291484951973,"164":-0.12721183896064758,"165":0.04973423480987549,"166":-0.0676843672990799,"167":-0.0920095294713974,"168":0.11319305747747421,"169":-0.11414109170436859,"170":-0.0891261100769043,"171":0.11548715829849243,"172":-0.11400886625051498,"173":-0.040960799902677536,"174":-0.07513017952442169,"175":0.012206989340484142,"176":0.19991204142570496,"177":0.056113094091415405,"178":0.19279684126377106,"179":0.19441770017147064,"180":-0.15652860701084137,"181":-0.16328905522823334,"182":0.0652049332857132,"183":0.06259416788816452,"184":0.11008646339178085,"185":0.018400365486741066,"186":0.19786512851715088,"187":0.1962507665157318,"188":-0.1488513946533203,"189":0.19925636053085327,"190":0.011152906343340874,"191":0.15523363649845123,"192":0.09612501412630081,"193":0.08799327164888382,"194":-0.17502786219120026,"195":0.017298579216003418,"196":0.1577354222536087,"197":-0.06173129007220268,"198":-0.11899300664663315,"199":-0.058279093354940414,"200":0.060272812843322754,"201":0.10989310592412949,"202":0.1933959573507309,"203":-0.01600733958184719,"204":-0.19342076778411865,"205":-0.04103364050388336,"206":-0.1144062802195549,"207":-0.04247133433818817,"208":0.10781816393136978,"209":0.09583988785743713,"210":0.09055236726999283,"211":-0.04339596629142761,"212":-0.10818331688642502,"213":-0.11393683403730392,"214":-0.056934766471385956,"215":-0.10539956390857697,"216":0.011648980900645256,"217":0.06644514203071594,"218":0.10861588269472122,"219":0.1034538745880127,"220":-0.11141842603683472,"221":-0.019891977310180664,"222":0.010898200795054436,"223":0.07989460974931717,"224":0.17416025698184967,"225":-0.18352676928043365,"226":-0.05765024200081825,"227":-0.09434374421834946,"228":0.15888723731040955,"229":-0.08885480463504791,"230":-0.10539180040359497,"231":-0.13268640637397766,"232":-0.12362636625766754,"233":-0.028750866651535034,"234":-0.08246541768312454,"235":-0.025199292227625847,"236":0.05635073408484459,"237":-0.19641418755054474,"238":-0.1247052550315857,"239":-0.13575772941112518,"240":-0.0572340190410614,"241":-0.11270350962877274,"242":0.0330737940967083,"243":-0.19231261312961578,"244":0.17159125208854675,"245":-0.0415390282869339,"246":-0.1278059333562851,"247":0.19554607570171356,"248":0.12014574557542801,"249":-0.07645547389984131,"250":-0.08050213754177094,"251":-0.037913836538791656,"252":0.04725387319922447,"253":0.07970573753118515,"254":0.05754869431257248,"255":0.10315980762243271,"256":0.12339118868112564,"257":0.0524669885635376,"258":0.16310392320156097,"259":-0.08867254108190536,"260":0.130039781332016,"261":-0.19243767857551575,"262":0.07206642627716064,"263":0.024166995659470558,"264":-0.0824025422334671,"265":-0.0035027621779590845,"266":0.1742851883172989,"267":-0.12669967114925385,"268":0.10884277522563934,"269":0.19769151508808136,"270":-0.12114372104406357,"271":0.18760046362876892,"272":-0.10631626099348068,"273":0.12732641398906708,"274":-0.1276172399520874,"275":-0.14565327763557434,"276":-0.10450731962919235,"277":0.052434325218200684,"278":0.16321857273578644,"279":-0.12681226432323456,"280":0.06845183670520782,"281":0.022497987374663353,"282":-0.16488608717918396,"283":-0.04937806725502014,"284":0.02985546365380287,"285":-0.04210251197218895,"286":0.14295706152915955,"287":-0.004145281855016947,"288":-0.04243506118655205,"289":-0.09550733864307404,"290":0.02308592014014721,"291":0.14789922535419464,"292":-0.03927230089902878,"293":-0.05963946133852005,"294":0.0967881977558136,"295":0.11819686740636826,"296":0.1557493954896927,"297":0.1407974660396576,"298":0.15018638968467712,"299":0.03659914433956146,"300":0.03873426467180252,"301":-0.10725265741348267,"302":0.01724720001220703,"303":-0.11051350086927414,"304":-0.16001060605049133,"305":0.09460391104221344,"306":0.15918946266174316,"307":0.021974176168441772,"308":0.08480701595544815,"309":0.1841018795967102,"310":0.13255278766155243,"311":-0.08184660971164703,"312":-0.08683944493532181,"313":-0.10588067770004272,"314":-0.06713122874498367,"315":0.11867459863424301,"316":-0.055592697113752365,"317":-0.03284851834177971,"318":0.10929001122713089,"319":-0.024658968672156334,"320":-0.1365669071674347,"321":0.13512101769447327,"322":0.07330794632434845,"323":-0.16559293866157532,"324":0.0038776679430156946,"325":0.005383058451116085,"326":0.12219920754432678,"327":-0.0562068410217762,"328":0.022967197000980377,"329":-0.0022507389076054096,"330":-0.03334500640630722,"331":-0.10903366655111313,"332":0.004210195038467646,"333":-0.04627814516425133,"334":0.04724332317709923,"335":-0.1703362911939621,"336":0.11657282710075378,"337":0.0007630908512510359,"338":-0.02589333988726139,"339":0.05885092914104462,"340":-0.12955617904663086,"341":-0.1909116953611374,"342":0.17455245554447174,"343":0.09074462205171585,"344":-0.07716948539018631,"345":-0.06409822404384613,"346":0.13572320342063904,"347":-0.004335069563239813,"348":-0.08270128071308136,"349":-0.06656744331121445,"350":0.08174968510866165,"351":-0.05631599202752113,"352":0.14697711169719696,"353":-0.10933729261159897,"354":0.11866336315870285,"355":0.19509951770305634,"356":-0.05548587813973427,"357":0.19115936756134033,"358":0.15961164236068726,"359":-0.06231929361820221,"360":-0.04130196571350098,"361":-0.13986118137836456,"362":0.1576826125383377,"363":-0.1909884512424469,"364":-0.0553264282643795,"365":-0.018888229504227638,"366":0.11710016429424286,"367":-0.13005487620830536,"368":-0.05445852130651474,"369":-0.17235922813415527,"370":-0.0530257411301136,"371":0.021835053339600563,"372":0.17931224405765533,"373":-0.06837618350982666,"374":-0.18307338654994965,"375":0.15435613691806793,"376":0.15171250700950623,"377":0.12750835716724396,"378":0.1662643849849701,"379":-0.09924759715795517,"380":-0.1442864090204239,"381":0.10293091833591461,"382":-0.044727716594934464,"383":-0.1260002851486206,"384":0.19044318795204163,"385":-0.027055757120251656,"386":-0.16809393465518951,"387":0.07910875976085663,"388":0.09792112559080124,"389":-0.1365310698747635,"390":0.06493977457284927,"391":-0.14467279613018036,"392":0.08180283010005951,"393":-0.0063598318956792355,"394":-0.016008790582418442,"395":-0.11942724138498306,"396":0.17804093658924103,"397":0.09662017971277237,"398":-0.15283875167369843,"399":-0.012061171233654022,"400":-0.1328173726797104,"401":-0.12726648151874542,"402":-0.051513418555259705,"403":-0.1483309268951416,"404":0.10378744453191757,"405":0.050554774701595306,"406":-0.033162858337163925,"407":0.16252751648426056,"408":0.12849904596805573,"409":0.1240401566028595,"410":0.0351613312959671,"411":-0.10580307990312576,"412":0.16579094529151917,"413":0.07999534904956818,"414":-0.1515122801065445,"415":0.0913829505443573,"416":-0.14286215603351593,"417":-0.1321439892053604,"418":0.05988936126232147,"419":-0.09700918197631836,"420":-0.03001975268125534,"421":-0.01680976338684559,"422":0.06287200003862381,"423":0.0024501050356775522,"424":-0.04362700134515762,"425":0.05615931749343872,"426":0.07112476974725723,"427":-0.1433980017900467,"428":0.14785850048065186,"429":0.13526010513305664,"430":0.12831909954547882,"431":-0.1713120937347412,"432":-0.13727177679538727,"433":-0.10912644118070602,"434":-0.16112223267555237,"435":-0.19678497314453125,"436":-0.02455775812268257,"437":-0.18546050786972046,"438":0.07651510089635849,"439":0.09931613504886627,"440":-0.1871001273393631,"441":0.1779235452413559,"442":-0.05830647423863411,"443":0.024562077596783638,"444":-0.1860896497964859,"445":0.09066079556941986,"446":-0.05716918408870697,"447":-0.038228005170822144,"448":-0.19460687041282654,"449":0.14945925772190094,"450":0.039695560932159424,"451":0.17547479271888733,"452":0.08133771270513535,"453":-0.13265472650527954,"454":0.11603481322526932,"455":0.154347762465477,"456":-0.04774092510342598,"457":-0.13914883136749268,"458":-0.07108600437641144,"459":0.12747900187969208,"460":-0.16477367281913757,"461":-0.16884587705135345,"462":0.18356409668922424,"463":-0.07726719975471497,"464":0.16888678073883057,"465":0.06115221977233887,"466":-0.14170272648334503,"467":-0.12936262786388397,"468":-0.05792621895670891,"469":-0.10416516661643982,"470":0.09941104054450989,"471":0.0664665624499321,"472":0.1169215589761734,"473":-0.1996149718761444,"474":0.1947522759437561,"475":-0.03465511277318001,"476":-0.052320148795843124,"477":-0.09732657670974731,"478":0.1663222312927246,"479":0.17600513994693756,"480":0.1501697599887848,"481":0.19630303978919983,"482":0.186964750289917,"483":-0.0217757411301136,"484":0.18573415279388428,"485":0.08262027055025101,"486":0.08742775768041611,"487":0.016673970967531204,"488":-0.19722610712051392,"489":0.19262555241584778,"490":0.1181798055768013,"491":0.17378059029579163,"492":-0.15078511834144592,"493":-0.18981628119945526,"494":-0.049541495740413666,"495":0.1892126351594925,"496":-0.17526742815971375,"497":0.09781316667795181,"498":-0.1609800010919571,"499":-0.1882416158914566}},"5":{"bias":-0.07190650701522827,"weights":{"0":-0.06691556423902512,"1":-0.1384204477071762,"2":-0.04660719633102417,"3":-0.15570314228534698,"4":-0.20225664973258972,"5":-0.131592258810997,"6":0.07760074734687805,"7":0.08528728038072586,"8":-0.03318309783935547,"9":-0.04251489043235779,"10":-0.06741929799318314,"11":0.24535472691059113,"12":-0.06717727333307266,"13":-0.14621266722679138,"14":0.040947325527668,"15":-0.18596836924552917,"16":-0.07803057134151459,"17":-0.1834810972213745,"18":0.11846866458654404,"19":0.03815543279051781,"20":-0.17012371122837067,"21":-0.11219537258148193,"22":-0.10120424628257751,"23":-0.001300012692809105,"24":-0.13647866249084473,"25":-0.06908362358808517,"26":-0.026284057646989822,"27":0.056484512984752655,"28":0.15869145095348358,"29":0.15450990200042725,"30":0.16388502717018127,"31":0.07844097912311554,"32":-0.11274214833974838,"33":0.16871321201324463,"34":0.19659729301929474,"35":0.07809948176145554,"36":-0.08618483692407608,"37":-0.10771141201257706,"38":0.03383461385965347,"39":-0.12338587641716003,"40":0.0011993774678558111,"41":0.17447279393672943,"42":0.0731368288397789,"43":0.08811294287443161,"44":-0.18243663012981415,"45":0.10885313898324966,"46":-0.11957614123821259,"47":-0.03500640019774437,"48":0.12168858200311661,"49":-0.033197615295648575,"50":0.026910021901130676,"51":0.144220232963562,"52":-0.0630074292421341,"53":-0.07392122596502304,"54":-0.15398742258548737,"55":-0.09780202805995941,"56":0.10892129689455032,"57":0.0501931831240654,"58":0.04153750091791153,"59":0.18423065543174744,"60":0.16278931498527527,"61":-0.13428568840026855,"62":-0.04773370176553726,"63":-0.011612441390752792,"64":0.027174659073352814,"65":0.026315955445170403,"66":-0.14745420217514038,"67":-0.0484514944255352,"68":0.09849415719509125,"69":-0.18334023654460907,"70":-0.18401998281478882,"71":-0.057466670870780945,"72":-0.04550319164991379,"73":0.0015054126270115376,"74":0.1731020212173462,"75":0.10920923948287964,"76":0.014766834676265717,"77":-0.06544025987386703,"78":0.0379897840321064,"79":-0.04373805597424507,"80":0.12282827496528625,"81":0.06757664680480957,"82":0.2085942178964615,"83":0.06089875102043152,"84":0.0970933809876442,"85":-0.027537178248167038,"86":0.031434111297130585,"87":0.010386425070464611,"88":-0.06818122416734695,"89":-0.1675291359424591,"90":-0.17282652854919434,"91":0.09632428735494614,"92":-0.11638202518224716,"93":0.18183986842632294,"94":0.18689362704753876,"95":0.0758870542049408,"96":0.03914056718349457,"97":-0.11626666784286499,"98":0.17463986575603485,"99":0.17355307936668396,"100":0.12335306406021118,"101":0.06114165484905243,"102":0.11925509572029114,"103":0.021666530519723892,"104":-0.025308391079306602,"105":0.08525127917528152,"106":-0.02443036064505577,"107":-0.04169922322034836,"108":-0.19645054638385773,"109":0.05166642367839813,"110":-0.10980401933193207,"111":0.19442984461784363,"112":0.10952828824520111,"113":0.1451173722743988,"114":0.025312671437859535,"115":-0.06982295960187912,"116":0.10641976445913315,"117":-0.18930800259113312,"118":0.088971808552742,"119":0.14744830131530762,"120":0.1276381015777588,"121":-0.18278178572654724,"122":0.06901523470878601,"123":0.049305081367492676,"124":-0.09071924537420273,"125":0.1688203513622284,"126":0.08069416135549545,"127":-0.08483213931322098,"128":0.055212050676345825,"129":0.02944514900445938,"130":0.19834692776203156,"131":0.17299526929855347,"132":-0.17740149796009064,"133":-0.1521160900592804,"134":0.04715811088681221,"135":0.14242257177829742,"136":0.1367589384317398,"137":0.14447557926177979,"138":-0.17063185572624207,"139":-0.15315799415111542,"140":0.05590906739234924,"141":0.08470383286476135,"142":-0.08010044693946838,"143":0.006457468029111624,"144":0.049618691205978394,"145":0.07874518632888794,"146":-0.026502305641770363,"147":-0.177216574549675,"148":-0.05955900996923447,"149":-0.011983061209321022,"150":-0.12325503677129745,"151":0.12535956501960754,"152":0.10259436815977097,"153":-0.033859267830848694,"154":-0.15637525916099548,"155":-0.18889077007770538,"156":-0.0026953108608722687,"157":-0.10591421276330948,"158":0.186068594455719,"159":-0.17081177234649658,"160":-0.10957928746938705,"161":0.11115486919879913,"162":-0.16899974644184113,"163":0.04476171359419823,"164":0.17820550501346588,"165":-0.15044480562210083,"166":-0.08037005364894867,"167":-0.07600057125091553,"168":0.11438582837581635,"169":-0.1654960960149765,"170":0.0827479436993599,"171":-0.039911072701215744,"172":-0.07703465223312378,"173":0.13308154046535492,"174":0.01425479631870985,"175":-0.01855681836605072,"176":-0.13212066888809204,"177":-0.09002752602100372,"178":-0.15701508522033691,"179":0.019654376432299614,"180":-0.05743546783924103,"181":0.1242450624704361,"182":0.08868489414453506,"183":-0.09762101620435715,"184":0.18784643709659576,"185":-0.03293367102742195,"186":-0.1598711758852005,"187":0.08954156190156937,"188":0.10783568769693375,"189":-0.19171345233917236,"190":-0.06901594251394272,"191":-0.0690772756934166,"192":0.13874907791614532,"193":0.18034563958644867,"194":-0.014471703208982944,"195":0.08517340570688248,"196":0.16352905333042145,"197":0.0388018935918808,"198":0.05111515894532204,"199":0.11647285521030426,"200":-0.08609457314014435,"201":-0.12965922057628632,"202":0.06861597299575806,"203":0.03916511684656143,"204":-0.15493373572826385,"205":0.003202675376087427,"206":-0.033033084124326706,"207":0.12615977227687836,"208":0.13144075870513916,"209":-0.15589794516563416,"210":-0.13835996389389038,"211":0.10525242239236832,"212":0.058331772685050964,"213":-0.02803056500852108,"214":-0.13937433063983917,"215":-0.012480177916586399,"216":-0.11732316017150879,"217":0.18492776155471802,"218":0.19990219175815582,"219":0.048834677785634995,"220":0.11766333132982254,"221":-0.11694817245006561,"222":0.02581535466015339,"223":-0.15375162661075592,"224":-0.11857139319181442,"225":0.07383101433515549,"226":-0.06708604097366333,"227":0.1426042765378952,"228":-0.1540781557559967,"229":-0.07069344818592072,"230":-0.10456890612840652,"231":-0.16617335379123688,"232":-0.19022546708583832,"233":-0.04023148491978645,"234":-0.0023754548747092485,"235":-0.1635749787092209,"236":0.08398197591304779,"237":0.19161278009414673,"238":-0.12052807211875916,"239":-0.009013831615447998,"240":0.16590091586112976,"241":0.1762426644563675,"242":-0.17448392510414124,"243":0.18158699572086334,"244":-0.0674472376704216,"245":0.10436400026082993,"246":-0.033473871648311615,"247":0.02631288208067417,"248":-0.05835243687033653,"249":-0.17226876318454742,"250":0.11736460030078888,"251":0.013181008398532867,"252":-0.11718247085809708,"253":-0.17688840627670288,"254":-0.05342944338917732,"255":0.1392766684293747,"256":0.09703999757766724,"257":-0.14254626631736755,"258":-0.04712300002574921,"259":0.08817708492279053,"260":-0.030955269932746887,"261":-0.15163658559322357,"262":0.13005247712135315,"263":-0.09501516073942184,"264":0.03678642958402634,"265":0.1280595064163208,"266":-0.027767106890678406,"267":-0.17588813602924347,"268":-0.013758555985987186,"269":-0.15157125890254974,"270":-0.04424535110592842,"271":-0.19283336400985718,"272":0.16863574087619781,"273":0.1496550440788269,"274":-0.1308058798313141,"275":0.03450387343764305,"276":-0.16109858453273773,"277":-0.06544321775436401,"278":-0.12451553344726562,"279":0.09875325113534927,"280":-0.014232534915208817,"281":-0.07356707751750946,"282":0.1509036123752594,"283":-0.1277986466884613,"284":-0.00363611220382154,"285":-0.1732635796070099,"286":0.0827358067035675,"287":0.11391345411539078,"288":-0.10987071692943573,"289":-0.13302026689052582,"290":-0.1300497204065323,"291":0.1895693838596344,"292":-0.012354071252048016,"293":0.12135913968086243,"294":0.04628012329339981,"295":-0.1070193201303482,"296":0.1014900878071785,"297":0.037178393453359604,"298":0.14760451018810272,"299":0.1923704296350479,"300":0.06663081794977188,"301":0.03269053250551224,"302":0.030319392681121826,"303":-0.17624525725841522,"304":-0.0536189079284668,"305":0.007349337451159954,"306":-0.14905591309070587,"307":0.11331546306610107,"308":-0.034826625138521194,"309":-0.1813325434923172,"310":0.12354716658592224,"311":0.18887801468372345,"312":0.07983772456645966,"313":0.09794268757104874,"314":0.1560697853565216,"315":0.09743183851242065,"316":-0.11495403945446014,"317":0.018765201792120934,"318":0.060763753950595856,"319":0.149665966629982,"320":-0.04806848242878914,"321":-0.05593190714716911,"322":-0.0613027885556221,"323":0.10782818496227264,"324":0.019959863275289536,"325":0.1176738291978836,"326":0.03423578292131424,"327":0.18131624162197113,"328":-0.1670169234275818,"329":-0.09311544895172119,"330":-0.05288461595773697,"331":-0.03907281532883644,"332":0.046084266155958176,"333":-0.19503384828567505,"334":-0.0663561299443245,"335":-0.09512849152088165,"336":-0.156032994389534,"337":0.15186992287635803,"338":-0.011338964104652405,"339":-0.0544368252158165,"340":-0.09971217811107635,"341":-0.08420714735984802,"342":-0.15960970520973206,"343":0.1235952377319336,"344":-0.18123601377010345,"345":0.06025046482682228,"346":0.17798064649105072,"347":0.11274454742670059,"348":-0.05584146827459335,"349":-0.03758763521909714,"350":0.03911139816045761,"351":0.044780466705560684,"352":0.12450776994228363,"353":0.05406896770000458,"354":-0.008904822170734406,"355":-0.09931804239749908,"356":-0.127717062830925,"357":0.12231969088315964,"358":-0.18800954520702362,"359":0.12536093592643738,"360":0.0490562804043293,"361":0.19272156059741974,"362":-0.13636194169521332,"363":-0.14003323018550873,"364":-0.034598689526319504,"365":-0.08442578464746475,"366":-0.09957575052976608,"367":-0.1233249083161354,"368":-0.1448373645544052,"369":0.1622326821088791,"370":-0.03866557404398918,"371":-0.11127661913633347,"372":-0.11718089133501053,"373":-0.17763982713222504,"374":0.06388550251722336,"375":-0.15629275143146515,"376":0.15616603195667267,"377":-0.14612901210784912,"378":-0.1738620102405548,"379":-0.1391010880470276,"380":-0.13736440241336823,"381":0.10019133985042572,"382":-0.09599195420742035,"383":-0.1905083954334259,"384":0.04577641934156418,"385":0.03612641990184784,"386":-0.19072632491588593,"387":-0.10753973573446274,"388":-0.09596290439367294,"389":-0.0002397752396063879,"390":-0.1037934273481369,"391":-0.10177896171808243,"392":0.05267581343650818,"393":-0.12945562601089478,"394":0.03820109739899635,"395":-0.1289878487586975,"396":-0.06576358526945114,"397":0.038945361971855164,"398":0.08698117733001709,"399":-0.02629942074418068,"400":0.0635172426700592,"401":-0.18818269670009613,"402":0.0830766037106514,"403":-0.17577064037322998,"404":-0.14556550979614258,"405":0.0769948810338974,"406":-0.020016198977828026,"407":0.048849910497665405,"408":-0.10499577969312668,"409":0.19964173436164856,"410":0.11235394328832626,"411":-0.04153354838490486,"412":-0.17048579454421997,"413":0.12413759529590607,"414":0.024788178503513336,"415":0.13666950166225433,"416":-0.05290216952562332,"417":0.10356126725673676,"418":-0.028924277052283287,"419":0.17359326779842377,"420":-0.046598583459854126,"421":-0.05297403782606125,"422":-0.02207520231604576,"423":-0.007949896156787872,"424":-0.007472010795027018,"425":0.04641691967844963,"426":0.19470486044883728,"427":0.09103702008724213,"428":0.0583542175590992,"429":-0.05187537893652916,"430":0.12524890899658203,"431":-0.10261213779449463,"432":0.16991393268108368,"433":0.08238916099071503,"434":0.09965095669031143,"435":-0.13890117406845093,"436":0.19493883848190308,"437":-0.13953091204166412,"438":0.15130668878555298,"439":-0.08483502268791199,"440":0.06519947946071625,"441":0.1667260378599167,"442":0.15259982645511627,"443":-0.04710328206419945,"444":0.14558593928813934,"445":-0.01763659529387951,"446":-0.08765269815921783,"447":0.1486293226480484,"448":-0.03383440151810646,"449":-0.19774624705314636,"450":-0.09855268895626068,"451":-0.18407122790813446,"452":0.050230078399181366,"453":0.11533248424530029,"454":-0.09645166993141174,"455":0.08659335225820541,"456":0.004270312841981649,"457":-0.1006346046924591,"458":-0.019300995394587517,"459":-0.013863618485629559,"460":0.18025116622447968,"461":-0.15366576611995697,"462":0.017891358584165573,"463":0.1429147571325302,"464":-0.1797841489315033,"465":-0.013539684936404228,"466":0.18329885601997375,"467":-0.04558105766773224,"468":-0.1755819469690323,"469":-0.06567876040935516,"470":0.08633038401603699,"471":-0.10006114840507507,"472":0.08355814218521118,"473":-0.017505692318081856,"474":0.006302173715084791,"475":0.11072050034999847,"476":0.17853829264640808,"477":0.12879599630832672,"478":-0.12584151327610016,"479":0.09949619323015213,"480":-0.08146334439516068,"481":0.12403599172830582,"482":0.1944703310728073,"483":-0.07876363396644592,"484":0.17607995867729187,"485":0.013992737978696823,"486":-0.011487286537885666,"487":-0.07635805010795593,"488":0.10044942051172256,"489":0.006991334725171328,"490":0.19443286955356598,"491":0.14833901822566986,"492":0.17966695129871368,"493":0.10021011531352997,"494":-0.1641489416360855,"495":-0.01910443976521492,"496":-0.15672613680362701,"497":0.018207233399152756,"498":0.10356854647397995,"499":-0.08215108513832092}},"6":{"bias":-0.1326208859682083,"weights":{"0":0.026011912152171135,"1":-0.10024072974920273,"2":0.14413686096668243,"3":-0.10076587647199631,"4":0.13303887844085693,"5":-0.18458886444568634,"6":0.2091614156961441,"7":-0.1821678727865219,"8":0.044593751430511475,"9":-0.09897693991661072,"10":0.10735470801591873,"11":0.1983993500471115,"12":-0.1437128782272339,"13":-0.014418150298297405,"14":0.015158851630985737,"15":-0.17531268298625946,"16":-0.1667446494102478,"17":-0.06568046659231186,"18":-0.04820819944143295,"19":0.056822072714567184,"20":-0.2040807455778122,"21":0.00039804662810638547,"22":-0.04241866618394852,"23":-0.028166798874735832,"24":0.10559789836406708,"25":0.10611902922391891,"26":0.08203379064798355,"27":0.12603965401649475,"28":0.1637871116399765,"29":-0.17632433772087097,"30":-0.1395939588546753,"31":-0.12277844548225403,"32":0.15352831780910492,"33":0.03586602956056595,"34":0.1255153864622116,"35":-0.09905761480331421,"36":0.1808817833662033,"37":-0.04671035706996918,"38":0.010830170474946499,"39":0.12559083104133606,"40":0.1514720320701599,"41":-0.12030752003192902,"42":0.16148392856121063,"43":0.13652239739894867,"44":0.0986456423997879,"45":0.18128035962581635,"46":-0.136690154671669,"47":-0.16849824786186218,"48":-0.0799003466963768,"49":-0.005152777303010225,"50":-0.19947902858257294,"51":-0.19869492948055267,"52":-0.026207564398646355,"53":0.05129413306713104,"54":-0.05919831618666649,"55":0.13446295261383057,"56":0.19981186091899872,"57":0.1500585973262787,"58":-0.15380460023880005,"59":0.03628501296043396,"60":-0.07578353583812714,"61":0.10194958001375198,"62":-0.0063429721631109715,"63":-0.16006514430046082,"64":0.06591932475566864,"65":-0.14736434817314148,"66":-0.13686195015907288,"67":0.14941801130771637,"68":0.15314249694347382,"69":0.06026877462863922,"70":-0.17134273052215576,"71":-0.006183981895446777,"72":0.11981978267431259,"73":-0.1559593826532364,"74":-0.052849046885967255,"75":0.10491953045129776,"76":0.00981143955141306,"77":0.1321345567703247,"78":0.0768815204501152,"79":-0.13742420077323914,"80":-0.16506065428256989,"81":-0.07259763032197952,"82":0.06653819978237152,"83":-0.14255252480506897,"84":-0.056007783859968185,"85":0.1603519767522812,"86":0.16830556094646454,"87":-0.10722868144512177,"88":-0.19170357286930084,"89":0.048774417489767075,"90":-0.17886580526828766,"91":0.04284864664077759,"92":-0.06029119715094566,"93":-0.08243833482265472,"94":0.009359757415950298,"95":0.045202840119600296,"96":0.11545202136039734,"97":-0.17999547719955444,"98":0.17723339796066284,"99":0.19430796802043915,"100":0.09216257929801941,"101":0.05639757961034775,"102":-0.16279485821723938,"103":0.1836414486169815,"104":-0.09232054650783539,"105":0.14108772575855255,"106":0.06908287107944489,"107":0.0496559776365757,"108":0.07393819093704224,"109":0.16024163365364075,"110":-0.1727205216884613,"111":0.13920961320400238,"112":-0.11213444173336029,"113":-0.0800807997584343,"114":0.14705108106136322,"115":0.09676605463027954,"116":-0.18687915802001953,"117":-0.032508451491594315,"118":-0.07410693168640137,"119":0.014337271451950073,"120":0.04255256429314613,"121":-0.04620921611785889,"122":0.025127140805125237,"123":-0.05599590018391609,"124":-0.134121373295784,"125":-0.02200358361005783,"126":0.13145630061626434,"127":0.026194479316473007,"128":0.055191878229379654,"129":0.03904002159833908,"130":0.02972780540585518,"131":-0.08921117335557938,"132":-0.07001727819442749,"133":0.12460688501596451,"134":-0.10005027055740356,"135":-0.04259297251701355,"136":-0.067764513194561,"137":-0.08534401655197144,"138":-0.04967902973294258,"139":0.10045061260461807,"140":-0.07565522938966751,"141":-0.017554044723510742,"142":0.1596173197031021,"143":0.014915095642209053,"144":-0.19546718895435333,"145":0.035787925124168396,"146":0.17952097952365875,"147":0.024128008633852005,"148":0.09658655524253845,"149":0.06868380308151245,"150":-0.07690633088350296,"151":0.1885763555765152,"152":0.1136210709810257,"153":0.045322149991989136,"154":-0.11738766729831696,"155":0.011673112399876118,"156":-0.17412865161895752,"157":-0.1143103688955307,"158":-0.17704099416732788,"159":-0.19768129289150238,"160":0.1294073611497879,"161":0.20030829310417175,"162":-0.0020262219477444887,"163":0.18331561982631683,"164":-0.10809206962585449,"165":0.10674276202917099,"166":0.09147538244724274,"167":0.04220983758568764,"168":0.07094770669937134,"169":0.05715261399745941,"170":0.11071760207414627,"171":0.16891591250896454,"172":-0.009141061455011368,"173":-0.06657437980175018,"174":-0.06278268992900848,"175":-0.1264653503894806,"176":0.1357966512441635,"177":0.1305381953716278,"178":-0.09903644025325775,"179":0.10373389720916748,"180":-0.004432152956724167,"181":0.1426527053117752,"182":0.029436621814966202,"183":-0.18717576563358307,"184":0.13222205638885498,"185":0.13432341814041138,"186":0.00468037324026227,"187":-0.017585689201951027,"188":0.1373203545808792,"189":0.16240957379341125,"190":0.019635094329714775,"191":0.013174506835639477,"192":-0.038651447743177414,"193":-0.039672717452049255,"194":0.06532500684261322,"195":-0.199162557721138,"196":-0.15334731340408325,"197":0.07400725781917572,"198":0.06811390072107315,"199":0.15511569380760193,"200":-0.04569162800908089,"201":0.19663426280021667,"202":0.0823160707950592,"203":0.09186496585607529,"204":0.10237647593021393,"205":0.19980359077453613,"206":0.18930765986442566,"207":-0.12023716419935226,"208":0.004986731335520744,"209":0.040180716663599014,"210":0.03130217269062996,"211":0.13122591376304626,"212":-0.015420211479067802,"213":0.0736723393201828,"214":-0.17234081029891968,"215":-0.18877030909061432,"216":0.12033453583717346,"217":0.06263156980276108,"218":0.1855335682630539,"219":-0.11657777428627014,"220":0.19731047749519348,"221":0.030172787606716156,"222":0.1513158231973648,"223":-0.12285104393959045,"224":0.06865371763706207,"225":-0.09633316099643707,"226":-0.08293236047029495,"227":0.04948059841990471,"228":0.04689859226346016,"229":-0.07320524752140045,"230":-0.15079477429389954,"231":0.10961785912513733,"232":-0.15635868906974792,"233":0.08546435087919235,"234":0.10505934804677963,"235":-0.1962929219007492,"236":0.189531147480011,"237":0.1972956657409668,"238":-0.04541785269975662,"239":0.18641041219234467,"240":-0.0449911504983902,"241":-0.00007304362225113437,"242":-0.1849687099456787,"243":0.02773118205368519,"244":0.11862048506736755,"245":0.11999962478876114,"246":0.10261057317256927,"247":-0.12405389547348022,"248":0.13942287862300873,"249":0.15849122405052185,"250":0.11355272680521011,"251":-0.0785660445690155,"252":-0.16837570071220398,"253":-0.11291071772575378,"254":0.029825851321220398,"255":0.14040648937225342,"256":0.11849534511566162,"257":0.18135051429271698,"258":-0.11905833333730698,"259":0.08722517639398575,"260":0.038138337433338165,"261":-0.09014002978801727,"262":-0.16129568219184875,"263":-0.08507063239812851,"264":-0.17215071618556976,"265":0.15692554414272308,"266":-0.13994404673576355,"267":0.1799439787864685,"268":-0.16623641550540924,"269":-0.03457186743617058,"270":-0.03546939417719841,"271":0.04208318516612053,"272":-0.19993199408054352,"273":0.05209807679057121,"274":-0.0571603886783123,"275":-0.04751557484269142,"276":-0.19899578392505646,"277":0.12974123656749725,"278":-0.02198592945933342,"279":-0.19659186899662018,"280":-0.1840055137872696,"281":0.08224760740995407,"282":0.0640220046043396,"283":-0.045023079961538315,"284":-0.12150795012712479,"285":0.13763613998889923,"286":0.027878282591700554,"287":0.09058604389429092,"288":-0.06657332181930542,"289":-0.08692923933267593,"290":-0.15557879209518433,"291":-0.013871735893189907,"292":0.1498291790485382,"293":-0.19287769496440887,"294":0.03311185538768768,"295":-0.12236975133419037,"296":-0.06060711294412613,"297":0.07364756613969803,"298":-0.05246581509709358,"299":-0.16123393177986145,"300":0.08555006980895996,"301":-0.1607745885848999,"302":0.12686587870121002,"303":-0.12934815883636475,"304":0.11466900259256363,"305":-0.030778279528021812,"306":-0.0908864215016365,"307":-0.12114303559064865,"308":0.1159973070025444,"309":0.07861067354679108,"310":-0.069078229367733,"311":-0.027584824711084366,"312":0.1960013508796692,"313":0.029409121721982956,"314":-0.0862763300538063,"315":0.1591421365737915,"316":0.10031848400831223,"317":0.05757144093513489,"318":-0.013702848926186562,"319":-0.16368354856967926,"320":-0.1868753582239151,"321":-0.09173790365457535,"322":-0.19726039469242096,"323":0.07534151524305344,"324":0.17684604227542877,"325":-0.1465679556131363,"326":-0.0829450786113739,"327":-0.17205072939395905,"328":-0.1423695683479309,"329":0.14537349343299866,"330":-0.09174960106611252,"331":0.06489869207143784,"332":-0.19687844812870026,"333":0.09070561081171036,"334":0.13308459520339966,"335":-0.19804663956165314,"336":0.11975790560245514,"337":0.06835976243019104,"338":-0.19517020881175995,"339":0.011484186165034771,"340":-0.029010968282818794,"341":-0.024226363748311996,"342":0.10554967820644379,"343":0.056860193610191345,"344":0.04387883096933365,"345":-0.11628298461437225,"346":-0.17047978937625885,"347":0.031233038753271103,"348":0.19681932032108307,"349":0.029806606471538544,"350":-0.06911991536617279,"351":-0.1594362109899521,"352":-0.17976875603199005,"353":0.12341205030679703,"354":-0.06233050674200058,"355":-0.19728544354438782,"356":-0.18861448764801025,"357":-0.02683531679213047,"358":0.09766960144042969,"359":0.1306801587343216,"360":-0.08373817801475525,"361":0.13789021968841553,"362":-0.049303390085697174,"363":0.04894457757472992,"364":0.08291814476251602,"365":0.05248592048883438,"366":-0.039397358894348145,"367":-0.1295834332704544,"368":-0.142055481672287,"369":-0.18271249532699585,"370":-0.15815599262714386,"371":0.15385927259922028,"372":0.11624441295862198,"373":0.0579460971057415,"374":0.06550956517457962,"375":-0.18573980033397675,"376":0.17452199757099152,"377":0.1890154331922531,"378":0.11411172151565552,"379":0.02775672636926174,"380":0.03736225888133049,"381":-0.04354850575327873,"382":-0.1489672064781189,"383":0.19825008511543274,"384":0.15211863815784454,"385":0.003888397477567196,"386":-0.1916813999414444,"387":0.1842690259218216,"388":0.006652527023106813,"389":0.1515388786792755,"390":0.11477600783109665,"391":-0.11127829551696777,"392":-0.17207510769367218,"393":0.07489952445030212,"394":-0.06764751672744751,"395":0.009020394645631313,"396":0.0027370406314730644,"397":-0.005901488475501537,"398":-0.002553151920437813,"399":-0.03929245099425316,"400":-0.1959705948829651,"401":-0.04041548818349838,"402":-0.14713872969150543,"403":0.08343505859375,"404":0.0487128309905529,"405":0.0796676054596901,"406":-0.15414351224899292,"407":-0.15138204395771027,"408":0.10268350690603256,"409":-0.05324455350637436,"410":0.03963141515851021,"411":-0.031975068151950836,"412":0.18343614041805267,"413":-0.0938449278473854,"414":-0.025260526686906815,"415":-0.169234037399292,"416":0.029886480420827866,"417":-0.18572431802749634,"418":0.03853088244795799,"419":-0.17811033129692078,"420":0.02000097744166851,"421":0.17662885785102844,"422":0.09621890634298325,"423":-0.13577544689178467,"424":-0.1913798600435257,"425":-0.06809508055448532,"426":0.1359374225139618,"427":-0.01945587806403637,"428":0.030336041003465652,"429":0.10506436228752136,"430":-0.13934750854969025,"431":-0.15919290482997894,"432":0.07898205518722534,"433":0.08084488660097122,"434":0.07603710144758224,"435":0.08854912221431732,"436":-0.11418956518173218,"437":0.1440366506576538,"438":0.039012763649225235,"439":-0.15824969112873077,"440":0.04202166199684143,"441":-0.151860773563385,"442":0.08600860834121704,"443":0.13400565087795258,"444":-0.05045527219772339,"445":-0.11577735841274261,"446":-0.09844591468572617,"447":-0.027192456647753716,"448":0.14962193369865417,"449":0.06097794696688652,"450":0.13787154853343964,"451":0.025789516046643257,"452":0.07716985046863556,"453":-0.10081644356250763,"454":0.02457561530172825,"455":-0.010159315541386604,"456":-0.009905651211738586,"457":0.1606123447418213,"458":0.15000459551811218,"459":0.005658471025526524,"460":-0.16878674924373627,"461":-0.14163458347320557,"462":-0.021087247878313065,"463":-0.08831820636987686,"464":-0.127535879611969,"465":0.14937496185302734,"466":0.19044679403305054,"467":-0.02454889565706253,"468":-0.06579513847827911,"469":-0.10063163191080093,"470":-0.02000296302139759,"471":0.09958508610725403,"472":-0.07356886565685272,"473":0.11421629041433334,"474":-0.07930244505405426,"475":0.19849422574043274,"476":0.00421615457162261,"477":-0.016507580876350403,"478":0.030668752267956734,"479":-0.08770057559013367,"480":0.08012614399194717,"481":0.01793265901505947,"482":0.05583173409104347,"483":0.09018836915493011,"484":0.12231515347957611,"485":-0.1571834534406662,"486":0.10121786594390869,"487":-0.04025493934750557,"488":0.12788334488868713,"489":-0.15564881265163422,"490":0.17818735539913177,"491":-0.14438381791114807,"492":0.03174654766917229,"493":-0.04666920006275177,"494":0.1815142184495926,"495":0.18392670154571533,"496":0.02571265399456024,"497":0.03812770918011665,"498":-0.02742636576294899,"499":0.12705697119235992}},"7":{"bias":0.10755787789821625,"weights":{"0":-0.015509515069425106,"1":-0.03617389500141144,"2":-0.005710895638912916,"3":0.0627560243010521,"4":-0.07349403202533722,"5":-0.028120433911681175,"6":0.06815002113580704,"7":-0.16066063940525055,"8":0.0522812195122242,"9":0.035544250160455704,"10":-0.1011989638209343,"11":0.03477127477526665,"12":-0.055673688650131226,"13":-0.032937925308942795,"14":0.14444026350975037,"15":0.16776996850967407,"16":-0.019809406250715256,"17":0.05308340862393379,"18":-0.04893804341554642,"19":-0.11537399142980576,"20":-0.03254840895533562,"21":-0.09467961639165878,"22":-0.21824893355369568,"23":-0.05437934026122093,"24":0.12607347965240479,"25":0.12781919538974762,"26":0.13960224390029907,"27":0.07922805100679398,"28":0.0025423725601285696,"29":0.019038045778870583,"30":0.1932545155286789,"31":0.09704180061817169,"32":0.19876804947853088,"33":0.011661364696919918,"34":-0.15837274491786957,"35":-0.02114536426961422,"36":-0.07071956992149353,"37":-0.06972867995500565,"38":-0.06897680461406708,"39":0.21648448705673218,"40":-0.02037571184337139,"41":0.21881632506847382,"42":0.04938019812107086,"43":-0.11882355809211731,"44":0.23243051767349243,"45":0.1570638120174408,"46":0.02622079849243164,"47":0.04897236078977585,"48":-0.056631822139024734,"49":-0.0736583024263382,"50":-0.16426599025726318,"51":0.1303034871816635,"52":0.1685498207807541,"53":0.16818997263908386,"54":-0.11623267829418182,"55":0.08932904154062271,"56":-0.11076843738555908,"57":0.03641445189714432,"58":0.04220433905720711,"59":-0.19742146134376526,"60":-0.012948596850037575,"61":-0.1871413290500641,"62":0.09468336403369904,"63":-0.09715442359447479,"64":0.05519513413310051,"65":-0.125435009598732,"66":-0.22072112560272217,"67":0.15690156817436218,"68":-0.01716543920338154,"69":-0.1666511595249176,"70":-0.22199799120426178,"71":-0.15573285520076752,"72":0.14385977387428284,"73":0.0028798424173146486,"74":-0.16764238476753235,"75":0.10667891800403595,"76":-0.1846485435962677,"77":-0.1900550127029419,"78":-0.031193669885396957,"79":-0.020599065348505974,"80":-0.15149754285812378,"81":-0.046758249402046204,"82":-0.00362413446418941,"83":0.12058558315038681,"84":-0.08109696209430695,"85":0.17378029227256775,"86":0.16681617498397827,"87":-0.1487799435853958,"88":0.026140796020627022,"89":-0.15898722410202026,"90":0.0007752461824566126,"91":-0.15392424166202545,"92":-0.04346518963575363,"93":-0.09374447166919708,"94":-0.17909571528434753,"95":-0.12869659066200256,"96":-0.07127714157104492,"97":-0.09833694249391556,"98":-0.02992144040763378,"99":-0.18806493282318115,"100":0.18821389973163605,"101":0.028641492128372192,"102":-0.18511487543582916,"103":0.12114939093589783,"104":-0.052221521735191345,"105":-0.17873504757881165,"106":-0.11310622841119766,"107":-0.0992211401462555,"108":-0.15012136101722717,"109":-0.12204588204622269,"110":-0.03647517412900925,"111":-0.10160531848669052,"112":-0.06704910099506378,"113":0.18793542683124542,"114":-0.03471742942929268,"115":0.09989053010940552,"116":-0.03350215405225754,"117":0.1434115320444107,"118":-0.07492080330848694,"119":0.06121404841542244,"120":0.015289269387722015,"121":0.042292267084121704,"122":-0.1738528311252594,"123":0.011100300587713718,"124":-0.12528957426548004,